%YAML:1.0
my_svm: !!opencv-ml-svm
   svm_type: C_SVC
   kernel: { type:RBF, gamma:1.0000000000000001e-05 }
   C: 2.5000000000000000e+00
   term_criteria: { epsilon:1.1920928955078125e-07, iterations:1000 }
   var_all: 153
   var_count: 153
   class_count: 11
   class_labels: !!opencv-matrix
      rows: 1
      cols: 11
      dt: i
      data: [ 0, 1, 2, 3, 4, 5, 6, 7, 8, 9, 10 ]
   sv_total: 90
   support_vectors:
      - [ 126., 36., 66., 48., 138., 45., 137., 153., 137., 64., 39.,
          150., 156., 153., 46., 49., 136., 151., 109., 54., 128., 51.,
          44., 40., 145., 37., 35., 31., 25., 20., 19., 17., 16., 14.,
          19., 20., 22., 22., 30., 33., 36., 35., 37., 36., 34., 34.,
          33., 33., 34., 35., 37., 38., 39., 39., 39., 39., 39., 39.,
          38., 38., 37., 37., 35., 33., 32., 33., 32., 33., 34., 34.,
          35., 36., 35., 33., 28., 23., 21., 19., 15., 14., 15., 18.,
          20., 25., 31., 34., 36., 37., 39., 44., 41., 38., 34., 26.,
          21., 18., 15., 13., 11., 10., 9., 14., 20., 22., 23., 26., 34.,
          33., 34., 34., 36., 37., 37., 37., 39., 40., 41., 43., 44.,
          45., 45., 45., 44., 44., 43., 42., 40., 37., 37., 36., 36.,
          36., 34., 34., 33., 29., 26., 22., 20., 18., 10., 10., 11.,
          14., 16., 18., 20., 24., 33., 38., 41., 44., 47. ]
      - [ 156., 30., 30., 35., 158., 34., 31., 134., 33., 35., 31., 100.,
          155., 138., 29., 45., 32., 136., 31., 39., 159., 37., 30., 31.,
          156., 48., 46., 43., 36., 34., 30., 26., 24., 22., 21., 19.,
          18., 16., 14., 13., 9., 8., 7., 19., 20., 21., 22., 24., 26.,
          26., 27., 26., 26., 26., 26., 27., 28., 28., 27., 27., 27.,
          26., 25., 25., 26., 25., 24., 22., 18., 17., 18., 11., 12.,
          14., 16., 17., 18., 20., 22., 24., 26., 28., 30., 31., 31.,
          33., 35., 38., 48., 52., 50., 38., 37., 36., 34., 31., 28.,
          27., 24., 22., 19., 17., 14., 13., 9., 8., 7., 5., 17., 20.,
          21., 22., 24., 24., 25., 27., 28., 28., 28., 28., 28., 28.,
          28., 28., 28., 28., 28., 27., 25., 25., 24., 23., 22., 17.,
          10., 8., 9., 11., 13., 14., 16., 17., 19., 21., 24., 27., 30.,
          33., 34., 34., 36., 43., 46. ]
      - [ 151., 107., 148., 80., 152., 106., 161., 160., 154., 94., 41.,
          159., 159., 159., 58., 77., 157., 159., 158., 56., 126., 104.,
          154., 75., 127., 61., 50., 48., 43., 41., 40., 39., 37., 39.,
          40., 38., 37., 37., 37., 38., 42., 43., 42., 46., 48., 48.,
          43., 42., 43., 44., 44., 41., 39., 38., 38., 40., 40., 40.,
          39., 41., 42., 42., 43., 41., 40., 40., 40., 42., 43., 42.,
          40., 38., 36., 38., 39., 39., 36., 37., 33., 30., 28., 27.,
          28., 37., 32., 32., 36., 46., 64., 45., 41., 33., 28., 26.,
          24., 20., 18., 16., 14., 15., 15., 17., 36., 45., 45., 46.,
          45., 46., 46., 48., 50., 50., 51., 53., 55., 55., 56., 60.,
          60., 59., 58., 59., 58., 59., 60., 60., 58., 54., 52., 50.,
          49., 49., 48., 49., 46., 45., 45., 46., 49., 43., 43., 35.,
          23., 16., 14., 16., 17., 19., 23., 24., 27., 31., 34. ]
      - [ 88., 39., 58., 51., 84., 43., 78., 154., 105., 41., 42., 90.,
          154., 93., 34., 35., 88., 154., 92., 38., 77., 37., 53., 38.,
          82., 58., 42., 34., 26., 18., 14., 11., 9., 6., 7., 13., 16.,
          20., 21., 23., 25., 25., 25., 25., 25., 26., 26., 25., 25.,
          25., 25., 25., 25., 24., 24., 25., 25., 25., 25., 24., 25.,
          25., 25., 25., 25., 25., 25., 25., 25., 25., 25., 24., 24.,
          24., 22., 20., 16., 13., 9., 6., 1., 5., 9., 12., 17., 22.,
          26., 40., 64., 19., 18., 16., 16., 14., 12., 11., 10., 9., 8.,
          8., 7., 7., 5., 5., 4., 3., 3., 3., 12., 37., 38., 40., 41.,
          41., 42., 44., 44., 47., 48., 48., 49., 49., 48., 48., 47.,
          45., 44., 44., 44., 43., 42., 40., 38., 22., 5., 4., 5., 5.,
          5., 5., 7., 7., 8., 8., 10., 10., 12., 12., 14., 15., 16., 17.,
          18. ]
      - [ 128., 50., 109., 45., 119., 44., 151., 158., 147., 65., 57.,
          150., 157., 142., 49., 33., 146., 158., 140., 39., 107., 40.,
          98., 32., 132., 45., 36., 34., 28., 21., 19., 31., 27., 28.,
          29., 30., 31., 31., 32., 32., 29., 29., 30., 31., 31., 31.,
          31., 30., 30., 31., 31., 31., 31., 32., 31., 31., 32., 32.,
          31., 31., 32., 32., 31., 31., 31., 31., 31., 31., 30., 30.,
          30., 30., 30., 31., 30., 30., 30., 30., 28., 28., 27., 27.,
          17., 17., 19., 23., 30., 33., 36., 51., 26., 24., 21., 20.,
          17., 15., 13., 11., 8., 8., 7., 7., 7., 5., 4., 3., 37., 40.,
          42., 43., 46., 48., 49., 51., 52., 51., 51., 51., 51., 51.,
          51., 52., 52., 51., 51., 51., 50., 48., 46., 45., 44., 43.,
          41., 38., 33., 32., 5., 6., 6., 7., 7., 9., 11., 12., 13., 14.,
          15., 17., 19., 22., 30., 32., 43. ]
      - [ 148., 66., 146., 49., 134., 53., 162., 155., 154., 47., 44.,
          154., 156., 154., 45., 69., 159., 154., 155., 42., 117., 87.,
          117., 60., 138., 64., 46., 43., 43., 42., 37., 33., 31., 35.,
          38., 40., 41., 40., 40., 36., 35., 37., 40., 39., 38., 39.,
          39., 40., 40., 43., 44., 45., 45., 45., 44., 43., 43., 42.,
          41., 41., 42., 42., 41., 41., 41., 40., 41., 42., 42., 43.,
          44., 41., 39., 35., 34., 34., 35., 35., 35., 36., 36., 34.,
          33., 29., 25., 33., 40., 44., 47., 45., 40., 27., 27., 25.,
          23., 21., 19., 14., 12., 12., 19., 38., 41., 43., 43., 44.,
          47., 50., 52., 54., 56., 57., 57., 54., 54., 53., 54., 54.,
          54., 55., 56., 56., 57., 57., 56., 56., 54., 54., 52., 49.,
          49., 47., 47., 47., 44., 43., 42., 40., 39., 39., 24., 14.,
          12., 13., 14., 15., 18., 21., 25., 26., 28., 44., 54. ]
      - [ 57., 27., 50., 35., 79., 30., 88., 137., 57., 49., 24., 88.,
          145., 57., 54., 26., 94., 141., 55., 51., 86., 26., 46., 28.,
          97., 44., 33., 28., 22., 18., 13., 8., 5., 6., 12., 17., 21.,
          23., 25., 25., 25., 25., 26., 26., 26., 28., 28., 27., 27.,
          27., 27., 28., 28., 28., 27., 27., 27., 28., 28., 28., 28.,
          27., 28., 28., 27., 27., 27., 27., 27., 27., 27., 27., 26.,
          25., 24., 23., 21., 17., 12., 5., 8., 11., 14., 16., 19., 22.,
          26., 30., 38., 18., 18., 16., 15., 14., 12., 12., 9., 8., 6.,
          5., 5., 3., 3., 3., 2., 1., 1., 20., 38., 40., 41., 43., 43.,
          43., 45., 45., 45., 45., 46., 46., 46., 46., 45., 45., 43.,
          43., 41., 41., 41., 39., 37., 33., 2., 2., 2., 4., 4., 6., 6.,
          6., 8., 8., 10., 10., 11., 12., 13., 14., 15., 20., 33., 64.,
          64. ]
      - [ 71., 35., 63., 38., 81., 29., 65., 156., 64., 29., 28., 64.,
          155., 74., 41., 27., 63., 156., 82., 37., 97., 36., 51., 37.,
          109., 51., 34., 28., 23., 18., 13., 9., 5., 9., 11., 14., 17.,
          20., 21., 22., 22., 22., 23., 22., 22., 22., 23., 23., 24.,
          24., 23., 23., 23., 23., 23., 23., 23., 23., 23., 23., 23.,
          23., 23., 23., 23., 23., 23., 23., 23., 23., 23., 23., 23.,
          23., 22., 20., 17., 15., 13., 11., 7., 11., 14., 18., 21., 26.,
          28., 38., 61., 20., 19., 16., 15., 14., 13., 12., 11., 11., 9.,
          9., 7., 7., 6., 5., 4., 4., 2., 2., 2., 4., 38., 40., 40., 42.,
          42., 44., 45., 46., 48., 50., 50., 50., 50., 50., 50., 47.,
          46., 44., 44., 42., 40., 37., 29., 2., 2., 2., 3., 3., 5., 5.,
          6., 8., 8., 9., 11., 11., 13., 14., 15., 16., 18., 19., 20. ]
      - [ 67., 48., 67., 37., 88., 36., 91., 148., 70., 49., 33., 101.,
          146., 63., 50., 34., 88., 147., 68., 63., 56., 43., 43., 31.,
          58., 49., 39., 28., 22., 16., 13., 10., 6., 6., 9., 13., 16.,
          18., 20., 23., 25., 26., 26., 26., 25., 25., 25., 26., 26.,
          25., 24., 24., 24., 24., 25., 25., 26., 27., 26., 26., 26.,
          26., 26., 26., 26., 26., 27., 27., 26., 27., 27., 27., 27.,
          27., 27., 24., 23., 21., 19., 14., 7., 2., 4., 7., 12., 19.,
          24., 29., 33., 15., 14., 13., 12., 11., 11., 9., 8., 8., 7.,
          6., 6., 4., 4., 3., 2., 2., 2., 5., 36., 40., 43., 43., 45.,
          45., 46., 46., 47., 47., 47., 47., 48., 47., 47., 46., 45.,
          44., 43., 42., 41., 39., 37., 35., 4., 1., 1., 2., 3., 4., 5.,
          5., 6., 7., 7., 7., 9., 9., 10., 12., 12., 14., 22., 46., 56. ]
      - [ 143., 152., 120., 44., 53., 130., 133., 126., 33., 39., 152.,
          151., 143., 33., 36., 151., 151., 147., 31., 39., 154., 150.,
          145., 34., 36., 64., 46., 42., 41., 39., 38., 36., 33., 31.,
          29., 27., 24., 11., 2., 2., 2., 21., 32., 34., 35., 35., 36.,
          36., 36., 36., 36., 36., 36., 37., 37., 37., 37., 37., 37.,
          37., 37., 37., 37., 37., 37., 37., 37., 37., 37., 37., 37.,
          37., 37., 37., 37., 37., 37., 37., 37., 37., 37., 37., 37.,
          37., 37., 38., 40., 42., 47., 64., 64., 60., 60., 60., 60.,
          60., 60., 60., 60., 60., 60., 61., 61., 61., 61., 61., 61.,
          61., 61., 61., 59., 59., 59., 58., 58., 58., 57., 57., 56.,
          56., 55., 54., 53., 52., 50., 42., 9., 7., 5., 4., 2., 2., 2.,
          1., 1., 1., 1., 1., 1., 1., 1., 1., 1., 1., 1., 1., 1., 2., 2.,
          2., 3., 5., 8. ]
      - [ 114., 83., 75., 150., 152., 150., 148., 55., 149., 153., 149.,
          142., 56., 151., 151., 149., 144., 56., 149., 150., 105., 90.,
          45., 104., 123., 60., 52., 44., 41., 39., 37., 36., 34., 35.,
          39., 40., 46., 53., 53., 53., 54., 54., 54., 53., 53., 53.,
          53., 53., 53., 53., 53., 53., 53., 53., 53., 54., 54., 54.,
          53., 53., 53., 53., 52., 52., 52., 52., 53., 53., 53., 53.,
          53., 53., 53., 53., 53., 52., 53., 52., 51., 50., 48., 35.,
          16., 11., 8., 7., 10., 15., 43., 64., 62., 59., 56., 56., 54.,
          53., 52., 51., 51., 49., 49., 49., 49., 49., 50., 50., 51.,
          51., 51., 49., 49., 47., 45., 41., 7., 1., 1., 0., 0., 0., 0.,
          1., 1., 4., 10., 48., 55., 56., 57., 57., 58., 58., 58., 58.,
          58., 58., 58., 58., 58., 58., 58., 59., 59., 60., 60., 62.,
          63., 64., 64., 64., 64., 64., 64. ]
      - [ 137., 93., 48., 49., 150., 145., 144., 25., 49., 149., 144.,
          141., 33., 37., 146., 145., 129., 30., 54., 151., 116., 93.,
          37., 56., 119., 64., 64., 64., 48., 39., 35., 31., 28., 27.,
          26., 26., 25., 32., 36., 37., 37., 37., 37., 37., 36., 36.,
          36., 36., 36., 37., 37., 37., 37., 38., 37., 37., 37., 37.,
          37., 37., 37., 38., 38., 38., 38., 37., 37., 38., 38., 38.,
          38., 39., 39., 38., 38., 37., 37., 37., 37., 36., 35., 34.,
          33., 34., 34., 36., 46., 64., 64., 64., 64., 64., 64., 64.,
          64., 64., 64., 64., 64., 64., 64., 64., 63., 61., 60., 59.,
          59., 57., 54., 51., 44., 36., 23., 7., 7., 6., 6., 6., 6., 6.,
          6., 5., 5., 5., 5., 5., 5., 5., 5., 5., 5., 6., 6., 6., 6., 7.,
          11., 21., 30., 40., 51., 64., 64., 64., 64., 64., 64., 64.,
          64., 64., 64., 64., 64. ]
      - [ 118., 85., 55., 48., 82., 148., 145., 126., 56., 68., 146.,
          148., 128., 55., 64., 152., 154., 129., 47., 61., 153., 150.,
          126., 54., 65., 57., 39., 31., 23., 19., 15., 14., 12., 14.,
          24., 32., 35., 36., 36., 36., 36., 36., 36., 36., 36., 37.,
          37., 36., 36., 36., 37., 37., 37., 36., 36., 36., 36., 36.,
          36., 35., 35., 36., 36., 36., 36., 36., 36., 36., 36., 36.,
          36., 36., 35., 35., 35., 35., 35., 35., 35., 35., 36., 36.,
          36., 36., 35., 35., 37., 44., 54., 64., 64., 64., 64., 64.,
          64., 64., 64., 64., 63., 63., 62., 61., 61., 61., 60., 60.,
          60., 60., 59., 59., 59., 59., 58., 57., 57., 57., 57., 56.,
          56., 56., 56., 55., 55., 54., 41., 9., 3., 3., 3., 2., 2., 2.,
          2., 2., 0., 0., 0., 0., 0., 0., 0., 1., 1., 1., 2., 2., 2., 2.,
          3., 4., 7., 8., 8. ]
      - [ 146., 132., 44., 151., 162., 157., 161., 50., 158., 158., 160.,
          157., 56., 156., 157., 158., 161., 44., 157., 158., 144., 153.,
          40., 98., 113., 53., 45., 30., 28., 28., 45., 47., 48., 48.,
          49., 50., 52., 53., 52., 52., 51., 50., 50., 49., 49., 49.,
          50., 50., 49., 49., 49., 49., 50., 49., 48., 48., 49., 49.,
          50., 50., 50., 50., 51., 51., 50., 50., 49., 49., 49., 50.,
          50., 49., 48., 47., 47., 47., 48., 49., 49., 49., 48., 46.,
          43., 26., 22., 13., 13., 23., 56., 64., 64., 64., 64., 64.,
          63., 60., 60., 60., 60., 60., 60., 59., 58., 58., 58., 57.,
          57., 57., 56., 56., 56., 55., 54., 53., 45., 22., 7., 5., 3.,
          1., 1., 1., 1., 2., 3., 3., 3., 3., 3., 9., 38., 57., 57., 58.,
          58., 59., 59., 59., 59., 59., 59., 59., 60., 61., 61., 61.,
          61., 61., 60., 60., 60., 62., 62. ]
      - [ 103., 113., 61., 142., 153., 151., 153., 40., 128., 152., 152.,
          149., 49., 139., 151., 150., 150., 52., 135., 152., 132., 103.,
          44., 62., 138., 64., 57., 52., 48., 45., 40., 40., 44., 45.,
          47., 48., 49., 49., 49., 49., 49., 48., 48., 48., 48., 49.,
          49., 50., 49., 50., 50., 50., 49., 49., 50., 50., 50., 50.,
          50., 50., 50., 50., 50., 49., 49., 50., 50., 50., 49., 49.,
          48., 48., 48., 48., 48., 48., 48., 48., 48., 47., 46., 42.,
          35., 21., 10., 8., 21., 29., 49., 64., 64., 64., 64., 63., 61.,
          59., 59., 59., 59., 60., 60., 60., 59., 59., 59., 59., 59.,
          59., 58., 57., 55., 54., 53., 52., 50., 49., 23., 8., 3., 3.,
          1., 1., 1., 1., 1., 1., 1., 2., 2., 5., 9., 32., 54., 55., 56.,
          58., 58., 60., 61., 61., 61., 61., 62., 62., 62., 62., 62.,
          62., 63., 64., 64., 64., 64. ]
      - [ 108., 97., 58., 50., 58., 148., 147., 132., 52., 48., 147.,
          145., 143., 64., 41., 145., 145., 140., 52., 50., 146., 148.,
          132., 55., 45., 64., 64., 53., 43., 33., 25., 17., 5., 4., 4.,
          9., 19., 33., 36., 38., 38., 38., 37., 38., 38., 38., 38., 38.,
          38., 38., 39., 39., 39., 40., 40., 40., 40., 40., 40., 40.,
          39., 39., 39., 38., 38., 39., 39., 38., 38., 38., 39., 39.,
          39., 39., 39., 39., 39., 39., 39., 39., 38., 38., 38., 38.,
          38., 38., 40., 46., 55., 64., 64., 64., 64., 62., 61., 61.,
          61., 61., 60., 60., 60., 60., 60., 60., 60., 60., 59., 59.,
          58., 58., 58., 58., 58., 58., 57., 57., 57., 57., 57., 57.,
          57., 57., 55., 55., 55., 54., 53., 32., 14., 6., 5., 5., 4.,
          4., 4., 4., 3., 3., 2., 2., 2., 2., 2., 2., 2., 3., 3., 3., 3.,
          4., 5., 6., 6. ]
      - [ 109., 112., 39., 154., 156., 154., 154., 63., 157., 154., 156.,
          156., 65., 156., 154., 154., 153., 86., 152., 154., 142., 146.,
          56., 130., 147., 64., 55., 52., 47., 39., 34., 29., 30., 38.,
          46., 49., 51., 53., 54., 53., 52., 51., 52., 51., 51., 51.,
          51., 51., 51., 50., 50., 51., 51., 50., 49., 49., 50., 51.,
          51., 51., 50., 50., 51., 52., 53., 54., 53., 52., 51., 49.,
          49., 49., 49., 49., 48., 48., 48., 49., 50., 50., 50., 49.,
          46., 41., 32., 15., 6., 14., 30., 64., 64., 64., 63., 62., 60.,
          59., 57., 57., 56., 57., 56., 57., 57., 58., 56., 56., 57.,
          57., 59., 58., 58., 56., 52., 51., 44., 26., 19., 2., 1., 1.,
          1., 1., 1., 1., 1., 1., 1., 7., 14., 28., 58., 58., 58., 58.,
          58., 59., 59., 59., 60., 60., 61., 62., 62., 62., 62., 62.,
          61., 62., 62., 62., 62., 64., 64. ]
      - [ 104., 97., 60., 154., 155., 152., 148., 57., 158., 152., 158.,
          155., 50., 158., 155., 155., 150., 46., 153., 154., 130., 109.,
          45., 86., 142., 35., 31., 30., 30., 29., 29., 31., 45., 47.,
          48., 50., 50., 51., 49., 49., 48., 48., 48., 50., 50., 50.,
          50., 49., 49., 49., 49., 50., 51., 50., 51., 50., 50., 49.,
          50., 50., 51., 51., 50., 49., 48., 49., 49., 49., 50., 50.,
          50., 49., 49., 49., 49., 49., 50., 51., 52., 52., 49., 44.,
          34., 16., 9., 6., 6., 14., 31., 64., 64., 61., 57., 55., 55.,
          53., 52., 51., 51., 51., 51., 51., 51., 51., 51., 51., 51.,
          51., 51., 49., 49., 48., 44., 28., 9., 0., 0., 1., 1., 1., 1.,
          1., 2., 2., 3., 6., 7., 19., 41., 57., 57., 56., 57., 57., 57.,
          57., 57., 57., 57., 58., 58., 58., 58., 58., 60., 60., 60.,
          60., 62., 62., 64., 64., 64. ]
      - [ 100., 120., 84., 156., 155., 156., 158., 40., 155., 155., 155.,
          161., 36., 151., 156., 154., 157., 46., 157., 155., 151., 158.,
          49., 85., 140., 64., 64., 58., 55., 52., 42., 34., 29., 29.,
          38., 46., 48., 48., 48., 47., 48., 48., 48., 47., 47., 47.,
          48., 48., 48., 48., 48., 49., 49., 49., 49., 49., 48., 48.,
          48., 48., 49., 49., 49., 49., 49., 50., 50., 51., 50., 49.,
          49., 48., 49., 50., 49., 49., 49., 49., 50., 49., 48., 46.,
          42., 37., 29., 11., 4., 22., 46., 64., 64., 63., 62., 61., 59.,
          59., 58., 57., 57., 57., 57., 57., 57., 57., 58., 59., 60.,
          60., 62., 60., 59., 57., 55., 46., 16., 7., 5., 4., 4., 4., 3.,
          3., 3., 3., 4., 4., 4., 3., 6., 34., 55., 56., 56., 57., 57.,
          58., 58., 59., 59., 59., 59., 59., 59., 60., 60., 60., 60.,
          60., 61., 61., 62., 64., 64. ]
      - [ 131., 93., 109., 104., 94., 104., 157., 158., 159., 77., 157.,
          159., 139., 91., 160., 153., 71., 158., 160., 160., 50., 124.,
          130., 164., 112., 52., 43., 27., 23., 18., 14., 23., 36., 38.,
          39., 39., 38., 39., 40., 42., 41., 40., 39., 42., 46., 56.,
          56., 53., 50., 48., 46., 47., 47., 49., 51., 52., 52., 51.,
          49., 48., 51., 52., 46., 46., 49., 52., 58., 56., 54., 53.,
          52., 49., 49., 50., 52., 50., 48., 48., 51., 52., 52., 51.,
          41., 16., 12., 9., 9., 26., 52., 53., 49., 43., 41., 40., 38.,
          37., 37., 35., 33., 32., 31., 34., 42., 41., 41., 42., 41.,
          41., 42., 41., 41., 41., 41., 42., 44., 47., 48., 48., 47.,
          46., 46., 46., 46., 45., 46., 45., 46., 46., 46., 44., 46.,
          46., 47., 47., 47., 48., 48., 49., 46., 43., 41., 36., 34.,
          35., 35., 37., 38., 43., 45., 49., 54., 55., 56. ]
      - [ 80., 96., 139., 83., 97., 116., 165., 164., 154., 72., 165.,
          166., 137., 63., 156., 162., 107., 74., 160., 164., 96., 57.,
          110., 122., 119., 33., 28., 23., 19., 14., 12., 24., 27., 29.,
          33., 34., 36., 37., 39., 40., 40., 39., 40., 43., 51., 50.,
          49., 47., 47., 46., 46., 48., 48., 48., 48., 46., 44., 44.,
          45., 46., 46., 47., 47., 49., 49., 47., 46., 45., 45., 46.,
          45., 46., 46., 47., 47., 46., 46., 46., 46., 45., 45., 42.,
          25., 6., 4., 4., 4., 5., 10., 58., 54., 49., 46., 44., 44.,
          41., 39., 38., 36., 35., 34., 34., 37., 38., 37., 37., 36.,
          37., 37., 36., 36., 36., 36., 35., 34., 37., 37., 37., 37.,
          37., 37., 37., 37., 37., 36., 37., 37., 37., 38., 36., 36.,
          36., 36., 34., 34., 35., 33., 31., 25., 25., 26., 28., 29.,
          30., 33., 35., 36., 38., 38., 41., 50., 64., 64. ]
      - [ 137., 81., 144., 118., 84., 139., 160., 158., 153., 73., 158.,
          156., 131., 115., 153., 146., 78., 157., 154., 156., 54., 102.,
          117., 110., 128., 47., 34., 26., 22., 20., 26., 34., 32., 32.,
          34., 36., 38., 39., 39., 39., 38., 40., 44., 52., 52., 52.,
          53., 53., 52., 51., 48., 48., 49., 49., 47., 48., 50., 54.,
          52., 46., 45., 44., 45., 46., 48., 50., 51., 52., 53., 53.,
          53., 48., 48., 49., 48., 48., 48., 49., 50., 51., 50., 49.,
          25., 5., 3., 2., 2., 18., 36., 46., 46., 42., 41., 40., 38.,
          37., 36., 36., 34., 33., 32., 31., 37., 40., 39., 40., 39.,
          38., 38., 38., 40., 40., 41., 40., 41., 43., 44., 44., 43.,
          46., 47., 47., 47., 46., 44., 44., 44., 43., 43., 42., 42.,
          42., 42., 43., 43., 43., 42., 42., 39., 36., 32., 35., 36.,
          37., 39., 40., 41., 42., 45., 46., 49., 57., 62. ]
      - [ 114., 61., 108., 49., 132., 49., 132., 136., 136., 37., 137.,
          129., 92., 51., 124., 97., 68., 136., 135., 135., 27., 83.,
          109., 99., 115., 43., 34., 32., 29., 26., 21., 32., 34., 36.,
          35., 34., 33., 31., 34., 36., 38., 39., 40., 40., 41., 42.,
          43., 46., 44., 43., 43., 44., 45., 46., 47., 47., 45., 38.,
          35., 34., 34., 35., 42., 47., 48., 49., 49., 49., 49., 48.,
          49., 50., 51., 50., 48., 48., 47., 47., 48., 48., 48., 47.,
          43., 6., 3., 2., 2., 3., 16., 45., 43., 39., 38., 35., 34.,
          31., 29., 27., 27., 25., 25., 27., 25., 25., 25., 28., 32.,
          35., 35., 37., 40., 40., 42., 43., 45., 46., 45., 45., 45.,
          47., 47., 47., 47., 46., 46., 46., 46., 45., 43., 42., 40.,
          38., 38., 37., 36., 34., 34., 34., 34., 35., 34., 30., 32.,
          34., 35., 37., 38., 42., 42., 44., 47., 50., 51. ]
      - [ 129., 84., 129., 67., 136., 68., 148., 153., 147., 61., 150.,
          149., 116., 54., 108., 137., 52., 146., 148., 151., 39., 53.,
          68., 95., 91., 49., 44., 39., 35., 31., 35., 32., 32., 37.,
          41., 41., 42., 41., 40., 41., 42., 42., 42., 43., 43., 44.,
          45., 49., 49., 49., 50., 50., 49., 47., 44., 43., 42., 39.,
          37., 36., 35., 37., 41., 43., 46., 46., 47., 49., 49., 49.,
          49., 48., 49., 49., 50., 50., 50., 49., 47., 45., 28., 12., 5.,
          4., 3., 4., 5., 9., 45., 52., 48., 44., 41., 39., 36., 34.,
          33., 32., 33., 34., 36., 36., 37., 37., 36., 36., 36., 37.,
          39., 39., 40., 39., 38., 39., 39., 38., 40., 40., 41., 42.,
          42., 41., 42., 42., 43., 43., 43., 41., 40., 40., 40., 40.,
          40., 41., 41., 40., 39., 35., 33., 32., 31., 30., 28., 30.,
          32., 34., 38., 40., 43., 48., 52., 55., 58. ]
      - [ 157., 65., 111., 61., 148., 61., 173., 174., 173., 64., 171.,
          174., 147., 65., 123., 153., 62., 165., 172., 167., 53., 69.,
          71., 70., 65., 48., 44., 42., 33., 25., 22., 20., 23., 22.,
          23., 29., 35., 35., 36., 38., 40., 42., 43., 43., 43., 44.,
          44., 44., 43., 49., 50., 52., 52., 51., 46., 44., 43., 43.,
          42., 39., 39., 38., 38., 42., 42., 47., 48., 47., 48., 47.,
          48., 47., 48., 48., 49., 49., 50., 50., 48., 46., 9., 2., 1.,
          1., 1., 1., 2., 4., 33., 46., 41., 40., 38., 36., 33., 31.,
          30., 30., 32., 35., 35., 34., 34., 33., 34., 34., 36., 38.,
          37., 36., 36., 35., 35., 38., 37., 38., 38., 38., 39., 38.,
          40., 40., 41., 43., 42., 40., 37., 35., 36., 35., 37., 39.,
          40., 40., 39., 38., 35., 31., 29., 29., 29., 26., 28., 30.,
          30., 31., 32., 37., 41., 43., 45., 48., 64. ]
      - [ 118., 65., 93., 91., 110., 103., 166., 165., 154., 58., 167.,
          167., 150., 71., 144., 169., 88., 91., 168., 173., 82., 66.,
          106., 106., 109., 32., 29., 25., 21., 16., 13., 10., 6., 15.,
          19., 24., 28., 32., 34., 36., 37., 37., 37., 37., 39., 42.,
          48., 47., 48., 47., 46., 46., 46., 46., 46., 45., 44., 44.,
          43., 44., 43., 44., 44., 46., 46., 45., 44., 43., 44., 44.,
          45., 46., 46., 46., 46., 46., 46., 44., 43., 42., 39., 31., 5.,
          5., 3., 3., 4., 5., 23., 49., 49., 46., 43., 41., 40., 38.,
          36., 36., 35., 35., 33., 33., 32., 33., 32., 31., 32., 32.,
          31., 32., 31., 31., 31., 31., 30., 30., 33., 33., 34., 35.,
          36., 36., 35., 37., 36., 36., 36., 35., 35., 35., 35., 34.,
          34., 34., 33., 30., 30., 31., 28., 28., 25., 27., 27., 29.,
          30., 32., 33., 35., 37., 40., 45., 49., 49. ]
      - [ 93., 46., 73., 78., 105., 143., 144., 137., 51., 77., 146.,
          114., 79., 71., 117., 114., 131., 150., 120., 77., 105., 59.,
          51., 35., 108., 47., 40., 34., 29., 24., 18., 12., 7., 10.,
          17., 24., 30., 33., 37., 41., 48., 46., 44., 42., 41., 40.,
          39., 37., 35., 32., 31., 31., 32., 32., 33., 33., 32., 33.,
          37., 37., 36., 39., 40., 42., 43., 45., 47., 48., 48., 48.,
          42., 36., 36., 35., 34., 32., 30., 25., 22., 13., 8., 10., 14.,
          17., 20., 24., 30., 39., 52., 59., 59., 52., 48., 46., 44.,
          44., 42., 40., 40., 38., 39., 37., 37., 39., 37., 40., 40.,
          38., 39., 37., 38., 38., 37., 37., 37., 37., 37., 36., 36.,
          36., 35., 34., 32., 31., 30., 29., 28., 26., 25., 25., 24.,
          22., 21., 19., 20., 17., 14., 7., 10., 12., 13., 14., 17., 18.,
          21., 22., 25., 26., 29., 33., 45., 52., 53. ]
      - [ 100., 73., 140., 41., 125., 81., 47., 159., 119., 29., 156.,
          144., 97., 38., 108., 74., 50., 152., 123., 35., 104., 40.,
          143., 38., 100., 64., 52., 42., 32., 32., 27., 27., 29., 31.,
          30., 28., 25., 24., 23., 22., 21., 21., 23., 25., 28., 30.,
          34., 46., 45., 45., 44., 39., 31., 27., 28., 29., 29., 36.,
          44., 43., 44., 43., 43., 43., 44., 45., 43., 33., 28., 25.,
          22., 22., 22., 23., 24., 25., 24., 22., 23., 24., 25., 25.,
          25., 24., 22., 23., 28., 39., 48., 52., 50., 48., 45., 42.,
          40., 36., 33., 31., 30., 27., 27., 27., 27., 27., 27., 25.,
          25., 26., 28., 29., 29., 32., 36., 44., 50., 51., 52., 51.,
          51., 51., 52., 53., 52., 52., 51., 49., 46., 43., 38., 33.,
          32., 29., 27., 23., 18., 6., 6., 7., 7., 7., 7., 7., 7., 8.,
          9., 11., 20., 24., 27., 29., 32., 36., 40. ]
      - [ 102., 36., 69., 36., 95., 149., 150., 145., 36., 46., 157.,
          102., 55., 38., 127., 50., 85., 149., 65., 38., 101., 37., 58.,
          33., 72., 52., 30., 28., 24., 21., 17., 13., 9., 10., 11., 15.,
          19., 22., 26., 42., 41., 40., 39., 38., 38., 37., 37., 36.,
          36., 35., 30., 27., 28., 29., 29., 30., 30., 32., 35., 36.,
          35., 35., 36., 38., 40., 42., 42., 43., 26., 23., 23., 23.,
          23., 23., 21., 21., 20., 16., 12., 9., 5., 8., 12., 14., 16.,
          19., 24., 28., 34., 54., 52., 48., 45., 45., 43., 43., 41.,
          40., 38., 37., 37., 35., 34., 33., 32., 27., 25., 25., 26.,
          30., 33., 34., 34., 35., 35., 35., 35., 36., 36., 36., 35.,
          34., 34., 32., 29., 27., 25., 22., 20., 17., 15., 7., 0., 0.,
          0., 0., 1., 2., 2., 4., 8., 10., 13., 14., 18., 20., 22., 25.,
          27., 28., 31., 34., 38. ]
      - [ 104., 63., 108., 83., 125., 151., 162., 161., 87., 97., 164.,
          139., 96., 64., 122., 88., 156., 156., 158., 57., 110., 83.,
          100., 82., 81., 43., 34., 30., 25., 21., 18., 13., 23., 26.,
          29., 34., 37., 38., 40., 42., 47., 49., 49., 49., 47., 46.,
          45., 44., 42., 40., 39., 38., 37., 36., 34., 33., 32., 31.,
          42., 43., 43., 42., 44., 46., 47., 49., 50., 51., 46., 43.,
          41., 42., 41., 40., 39., 38., 37., 36., 32., 28., 27., 13., 8.,
          12., 15., 19., 23., 28., 52., 58., 56., 48., 44., 43., 40.,
          39., 37., 35., 36., 34., 36., 35., 42., 43., 43., 45., 44.,
          45., 46., 47., 48., 45., 46., 44., 43., 43., 42., 42., 42.,
          42., 41., 42., 42., 41., 41., 39., 38., 39., 36., 33., 31.,
          30., 30., 26., 25., 20., 18., 17., 17., 16., 14., 12., 14.,
          16., 18., 20., 23., 27., 35., 41., 43., 44., 46. ]
      - [ 150., 42., 90., 80., 88., 156., 153., 157., 152., 44., 156.,
          125., 45., 41., 106., 150., 151., 155., 145., 42., 120., 52.,
          104., 47., 83., 44., 40., 37., 26., 22., 19., 16., 27., 31.,
          35., 34., 37., 38., 43., 46., 51., 53., 53., 53., 52., 51.,
          51., 49., 47., 46., 43., 41., 39., 37., 31., 30., 28., 27.,
          26., 24., 30., 48., 49., 49., 50., 50., 50., 51., 51., 51.,
          51., 51., 51., 41., 38., 36., 35., 34., 33., 33., 31., 28.,
          18., 15., 17., 21., 25., 34., 37., 64., 64., 64., 62., 60.,
          58., 54., 51., 48., 46., 44., 43., 42., 40., 40., 40., 40.,
          43., 44., 44., 44., 42., 41., 40., 42., 41., 42., 42., 42.,
          43., 42., 43., 43., 42., 42., 41., 40., 40., 40., 40., 40.,
          38., 38., 35., 34., 34., 31., 31., 30., 26., 19., 5., 5., 5.,
          6., 7., 10., 14., 19., 24., 27., 34., 49., 51. ]
      - [ 82., 34., 69., 40., 90., 150., 153., 125., 41., 65., 155.,
          122., 53., 37., 109., 60., 86., 155., 69., 33., 87., 59., 49.,
          40., 74., 35., 31., 28., 23., 20., 15., 10., 6., 6., 10., 16.,
          24., 28., 32., 43., 43., 42., 42., 40., 39., 38., 38., 37.,
          36., 36., 31., 29., 29., 29., 30., 30., 37., 36., 35., 34.,
          33., 32., 35., 38., 41., 42., 43., 37., 30., 27., 25., 25.,
          24., 24., 24., 22., 20., 17., 12., 11., 4., 6., 10., 13., 17.,
          21., 25., 29., 35., 64., 59., 52., 47., 44., 41., 41., 38.,
          38., 37., 35., 35., 33., 34., 33., 33., 31., 28., 28., 28.,
          28., 34., 35., 36., 37., 36., 36., 36., 36., 34., 32., 32.,
          30., 30., 29., 27., 25., 23., 21., 20., 19., 16., 12., 0., 0.,
          0., 1., 1., 2., 3., 4., 9., 11., 15., 18., 19., 22., 23., 26.,
          28., 30., 32., 36., 37. ]
      - [ 164., 163., 61., 41., 166., 163., 77., 111., 37., 164., 116.,
          125., 147., 43., 165., 71., 83., 54., 56., 96., 162., 154.,
          116., 33., 136., 54., 50., 47., 45., 43., 42., 42., 42., 42.,
          41., 40., 38., 37., 37., 37., 35., 34., 32., 31., 36., 38.,
          37., 37., 38., 38., 38., 38., 38., 37., 39., 40., 41., 40.,
          40., 39., 40., 39., 39., 38., 37., 33., 29., 6., 4., 4., 7.,
          35., 44., 46., 46., 47., 48., 48., 48., 48., 47., 47., 44.,
          39., 30., 28., 28., 39., 64., 59., 57., 57., 56., 55., 51.,
          50., 50., 50., 50., 49., 49., 47., 49., 52., 52., 49., 46.,
          46., 46., 47., 48., 49., 47., 43., 42., 42., 44., 41., 40.,
          40., 37., 36., 30., 6., 2., 3., 3., 2., 2., 2., 2., 2., 1., 1.,
          1., 1., 1., 2., 3., 40., 51., 52., 54., 55., 55., 56., 57.,
          59., 60., 64., 64., 64., 64. ]
      - [ 161., 162., 161., 66., 152., 162., 145., 113., 111., 135.,
          122., 142., 159., 113., 123., 56., 105., 62., 49., 63., 159.,
          162., 160., 115., 127., 64., 60., 56., 54., 54., 52., 50., 47.,
          47., 46., 46., 45., 47., 46., 41., 42., 45., 46., 44., 41.,
          39., 41., 43., 46., 45., 44., 41., 41., 41., 43., 44., 43.,
          40., 40., 43., 44., 44., 43., 41., 40., 39., 35., 26., 11., 0.,
          0., 0., 3., 26., 51., 51., 51., 52., 52., 52., 52., 53., 52.,
          52., 52., 53., 54., 56., 62., 55., 53., 51., 50., 49., 48.,
          47., 46., 45., 44., 43., 43., 42., 50., 50., 50., 53., 54.,
          55., 54., 50., 50., 50., 49., 50., 50., 50., 50., 50., 50.,
          51., 51., 52., 55., 55., 54., 54., 54., 53., 50., 50., 49.,
          47., 44., 22., 7., 6., 4., 3., 4., 3., 3., 3., 9., 14., 24.,
          44., 57., 57., 57., 58., 59., 60., 60. ]
      - [ 160., 154., 73., 47., 161., 161., 38., 49., 34., 166., 115.,
          37., 166., 30., 161., 46., 48., 59., 31., 83., 162., 161.,
          160., 32., 158., 62., 48., 44., 41., 39., 38., 38., 38., 37.,
          37., 37., 36., 34., 33., 32., 30., 30., 29., 29., 29., 29.,
          29., 28., 31., 32., 33., 33., 33., 32., 32., 33., 33., 32.,
          32., 31., 30., 30., 27., 11., 5., 3., 1., 1., 2., 4., 7., 10.,
          22., 46., 47., 47., 48., 49., 49., 50., 50., 50., 49., 49.,
          50., 50., 52., 57., 62., 61., 59., 57., 55., 54., 50., 49.,
          48., 47., 45., 44., 43., 42., 40., 39., 38., 33., 31., 31.,
          30., 29., 28., 29., 32., 31., 30., 29., 31., 32., 33., 33.,
          34., 34., 32., 32., 27., 8., 4., 3., 3., 3., 3., 3., 2., 2.,
          2., 1., 1., 2., 3., 6., 47., 52., 54., 56., 56., 57., 56., 57.,
          57., 58., 59., 61., 64. ]
      - [ 158., 162., 93., 36., 161., 156., 96., 130., 43., 158., 114.,
          126., 152., 42., 161., 96., 91., 65., 48., 88., 159., 154.,
          133., 61., 148., 53., 50., 48., 47., 45., 43., 43., 42., 42.,
          41., 39., 37., 36., 36., 35., 34., 33., 35., 37., 37., 38.,
          37., 36., 37., 37., 36., 37., 37., 37., 38., 38., 38., 37.,
          38., 38., 38., 38., 38., 37., 34., 29., 13., 6., 5., 5., 23.,
          41., 45., 46., 47., 48., 48., 48., 48., 48., 49., 49., 48.,
          44., 39., 29., 28., 29., 59., 64., 61., 59., 58., 57., 56.,
          51., 51., 50., 50., 49., 46., 44., 44., 45., 46., 50., 50.,
          48., 46., 46., 47., 47., 48., 47., 46., 44., 44., 49., 49.,
          46., 44., 41., 38., 35., 22., 3., 2., 2., 1., 1., 1., 1., 1.,
          1., 1., 1., 1., 1., 1., 2., 11., 47., 53., 53., 55., 55., 56.,
          56., 58., 59., 62., 64., 64. ]
      - [ 160., 154., 39., 38., 161., 158., 48., 40., 31., 159., 120.,
          30., 89., 45., 160., 54., 40., 45., 33., 46., 155., 155., 125.,
          30., 158., 64., 44., 41., 40., 39., 38., 36., 35., 34., 33.,
          34., 34., 33., 32., 33., 33., 32., 31., 30., 29., 28., 27.,
          26., 26., 26., 26., 25., 24., 23., 22., 22., 25., 26., 26.,
          26., 26., 25., 25., 24., 22., 20., 13., 1., 0., 0., 2., 4., 6.,
          9., 25., 42., 44., 44., 45., 45., 45., 45., 46., 46., 46., 48.,
          49., 52., 61., 60., 59., 56., 54., 52., 50., 48., 46., 44.,
          43., 42., 41., 40., 36., 34., 33., 32., 31., 30., 27., 24.,
          23., 22., 21., 24., 26., 27., 28., 27., 28., 26., 24., 15., 5.,
          4., 3., 3., 2., 2., 2., 2., 2., 2., 1., 1., 1., 2., 2., 3., 5.,
          19., 46., 52., 54., 54., 56., 57., 57., 57., 58., 58., 59.,
          60., 61. ]
      - [ 170., 169., 77., 50., 161., 169., 88., 145., 68., 166., 127.,
          145., 158., 49., 166., 95., 95., 102., 44., 120., 169., 168.,
          124., 43., 136., 51., 47., 44., 43., 43., 42., 42., 42., 41.,
          40., 39., 36., 35., 33., 32., 32., 31., 37., 39., 38., 39.,
          38., 36., 38., 37., 38., 37., 38., 38., 38., 38., 39., 39.,
          38., 39., 37., 37., 35., 31., 23., 7., 2., 2., 4., 6., 23.,
          45., 47., 47., 48., 47., 48., 48., 47., 47., 46., 46., 44.,
          39., 32., 29., 28., 32., 64., 59., 58., 58., 57., 56., 53.,
          51., 50., 49., 48., 46., 44., 44., 43., 42., 47., 48., 45.,
          44., 44., 44., 44., 44., 45., 43., 44., 43., 45., 46., 42.,
          40., 38., 36., 34., 29., 17., 1., 1., 1., 1., 1., 1., 1., 1.,
          1., 1., 1., 1., 2., 2., 5., 26., 49., 52., 52., 53., 56., 56.,
          57., 57., 59., 62., 64., 64. ]
      - [ 150., 147., 112., 47., 145., 146., 117., 69., 82., 145., 132.,
          56., 146., 80., 144., 40., 37., 46., 32., 73., 145., 146.,
          142., 75., 144., 57., 52., 50., 48., 47., 46., 45., 44., 43.,
          42., 41., 40., 39., 38., 37., 36., 35., 36., 35., 37., 40.,
          41., 42., 42., 41., 42., 41., 41., 41., 40., 41., 42., 42.,
          42., 43., 42., 41., 39., 35., 33., 28., 16., 9., 5., 2., 1.,
          1., 1., 2., 9., 30., 44., 50., 52., 54., 55., 56., 56., 56.,
          56., 56., 56., 57., 60., 56., 55., 54., 53., 52., 52., 51.,
          49., 48., 47., 46., 44., 43., 42., 41., 40., 39., 38., 37.,
          35., 36., 39., 40., 39., 39., 39., 37., 38., 38., 39., 39.,
          39., 40., 40., 38., 38., 37., 36., 35., 33., 31., 27., 5., 0.,
          0., 0., 0., 1., 1., 3., 10., 36., 51., 53., 54., 55., 55., 55.,
          56., 57., 58., 58., 60., 64. ]
      - [ 165., 164., 107., 131., 167., 164., 113., 50., 111., 169.,
          144., 53., 55., 118., 163., 66., 67., 69., 73., 115., 159.,
          143., 61., 75., 148., 64., 64., 63., 57., 55., 54., 52., 52.,
          51., 51., 49., 48., 47., 46., 44., 43., 41., 40., 39., 38.,
          37., 36., 34., 33., 32., 32., 31., 31., 31., 31., 31., 31.,
          30., 29., 28., 27., 24., 24., 23., 21., 19., 17., 10., 8., 7.,
          7., 7., 9., 16., 37., 43., 44., 45., 44., 43., 41., 39., 39.,
          38., 38., 38., 41., 56., 64., 58., 58., 56., 55., 54., 51.,
          51., 50., 49., 48., 47., 45., 41., 39., 38., 37., 37., 36.,
          35., 34., 33., 32., 31., 30., 25., 23., 20., 18., 16., 11., 9.,
          7., 7., 6., 5., 5., 5., 4., 5., 5., 5., 6., 7., 11., 23., 40.,
          41., 43., 46., 50., 56., 57., 57., 58., 59., 60., 61., 64.,
          64., 64., 64., 64., 64., 64. ]
      - [ 169., 167., 132., 103., 169., 166., 163., 55., 96., 161., 156.,
          75., 47., 101., 168., 79., 51., 51., 63., 100., 160., 151.,
          58., 58., 140., 64., 64., 58., 56., 54., 53., 52., 52., 51.,
          50., 49., 48., 47., 47., 46., 45., 45., 44., 44., 42., 42.,
          41., 40., 39., 38., 37., 36., 36., 35., 35., 34., 33., 31.,
          30., 29., 28., 26., 25., 23., 23., 21., 20., 18., 11., 7., 7.,
          7., 8., 10., 16., 24., 33., 40., 41., 41., 41., 39., 38., 36.,
          35., 35., 36., 38., 41., 64., 64., 64., 60., 58., 55., 53.,
          51., 50., 50., 49., 48., 46., 45., 44., 43., 42., 41., 40.,
          39., 37., 36., 35., 34., 31., 27., 21., 16., 14., 12., 11.,
          10., 9., 8., 6., 4., 3., 2., 2., 2., 2., 2., 2., 3., 4., 8.,
          30., 40., 41., 42., 46., 50., 53., 57., 57., 58., 58., 59.,
          60., 61., 64., 64., 64., 64. ]
      - [ 42., 81., 88., 88., 138., 47., 155., 147., 142., 156., 41.,
          118., 128., 107., 57., 127., 153., 154., 154., 39., 79., 76.,
          79., 46., 88., 44., 10., 8., 8., 7., 8., 9., 28., 49., 50.,
          51., 51., 51., 51., 52., 52., 52., 52., 52., 52., 52., 52.,
          48., 23., 19., 17., 10., 7., 6., 4., 22., 27., 27., 30., 36.,
          39., 40., 46., 51., 51., 51., 52., 52., 52., 52., 52., 49.,
          42., 40., 39., 38., 37., 34., 29., 28., 26., 21., 9., 12., 14.,
          17., 23., 26., 30., 26., 20., 19., 18., 17., 15., 14., 13.,
          12., 11., 13., 13., 26., 34., 38., 39., 39., 40., 41., 42.,
          44., 43., 43., 42., 42., 42., 42., 42., 42., 43., 44., 43.,
          43., 43., 42., 43., 43., 43., 44., 44., 43., 40., 40., 40.,
          39., 36., 35., 34., 35., 34., 35., 26., 23., 22., 23., 24.,
          28., 34., 35., 36., 37., 38., 40., 45. ]
      - [ 44., 76., 88., 84., 130., 42., 156., 156., 158., 155., 37.,
          82., 119., 94., 70., 137., 158., 155., 155., 35., 78., 87.,
          103., 63., 80., 63., 24., 9., 8., 8., 8., 9., 14., 49., 51.,
          51., 52., 52., 52., 52., 52., 52., 52., 52., 52., 52., 52.,
          52., 52., 48., 22., 19., 13., 8., 7., 7., 17., 26., 29., 34.,
          37., 39., 40., 44., 52., 52., 52., 52., 52., 52., 52., 52.,
          50., 43., 41., 40., 40., 39., 37., 33., 30., 28., 14., 9., 13.,
          16., 21., 25., 28., 54., 20., 17., 17., 15., 14., 15., 14.,
          13., 14., 14., 15., 21., 36., 38., 39., 42., 41., 43., 44.,
          46., 44., 44., 44., 44., 44., 43., 43., 43., 44., 45., 45.,
          45., 46., 46., 45., 45., 44., 44., 44., 44., 44., 43., 42.,
          40., 39., 39., 38., 38., 37., 35., 22., 22., 24., 24., 25.,
          29., 35., 36., 37., 38., 38., 41., 59. ]
      - [ 148., 51., 63., 61., 91., 51., 155., 154., 153., 154., 60.,
          83., 150., 77., 64., 104., 157., 152., 153., 31., 86., 68.,
          155., 37., 105., 43., 14., 13., 13., 14., 14., 14., 43., 56.,
          56., 56., 56., 56., 56., 56., 56., 55., 53., 52., 52., 52.,
          52., 52., 52., 51., 21., 16., 14., 14., 22., 29., 31., 35.,
          40., 47., 47., 49., 50., 51., 51., 52., 51., 52., 52., 45.,
          40., 35., 36., 36., 36., 34., 33., 34., 38., 39., 35., 31.,
          31., 33., 28., 23., 23., 28., 45., 59., 58., 57., 56., 39.,
          36., 35., 33., 17., 14., 13., 13., 13., 12., 12., 19., 40.,
          41., 43., 44., 46., 47., 47., 46., 46., 47., 47., 48., 48.,
          49., 49., 49., 50., 50., 50., 49., 48., 48., 47., 46., 46.,
          45., 43., 44., 43., 42., 41., 37., 34., 34., 34., 24., 23.,
          24., 27., 29., 29., 30., 33., 41., 43., 43., 45., 49. ]
      - [ 70., 109., 128., 111., 140., 47., 162., 153., 154., 159., 55.,
          146., 154., 159., 59., 157., 155., 156., 155., 62., 121., 86.,
          112., 67., 109., 56., 19., 19., 26., 27., 17., 36., 48., 50.,
          51., 51., 51., 51., 51., 51., 51., 51., 51., 52., 52., 52.,
          51., 37., 29., 11., 7., 10., 26., 26., 28., 33., 37., 39., 42.,
          49., 54., 52., 52., 52., 53., 53., 54., 53., 52., 52., 52.,
          52., 52., 51., 51., 51., 51., 50., 48., 43., 36., 34., 22.,
          15., 17., 19., 22., 26., 55., 33., 33., 32., 31., 30., 31.,
          30., 30., 29., 28., 27., 26., 30., 40., 41., 42., 43., 45.,
          46., 47., 49., 51., 52., 50., 51., 52., 50., 48., 48., 47.,
          47., 48., 49., 49., 49., 49., 49., 48., 48., 47., 48., 48.,
          48., 48., 46., 46., 45., 44., 43., 43., 42., 36., 26., 25.,
          29., 29., 30., 32., 33., 35., 36., 37., 43., 45. ]
      - [ 46., 55., 54., 44., 111., 39., 168., 167., 165., 166., 66.,
          140., 165., 43., 71., 127., 74., 164., 98., 69., 67., 45.,
          124., 39., 148., 64., 55., 39., 17., 6., 6., 8., 10., 25., 36.,
          44., 50., 52., 53., 53., 53., 52., 52., 52., 51., 51., 52.,
          30., 27., 19., 10., 10., 10., 17., 22., 24., 31., 34., 36.,
          45., 46., 46., 46., 46., 47., 47., 47., 47., 40., 33., 30.,
          28., 27., 25., 27., 29., 29., 29., 29., 27., 25., 24., 22.,
          19., 17., 22., 31., 36., 41., 54., 35., 28., 24., 23., 20.,
          20., 18., 17., 17., 17., 16., 24., 29., 29., 31., 30., 30.,
          30., 29., 31., 34., 37., 40., 47., 47., 49., 49., 49., 49.,
          48., 46., 46., 45., 44., 43., 40., 39., 37., 36., 34., 33.,
          34., 33., 21., 19., 20., 21., 22., 22., 21., 22., 22., 22.,
          24., 30., 35., 37., 39., 41., 44., 57., 64., 64. ]
      - [ 29., 62., 63., 70., 119., 32., 160., 154., 162., 157., 111.,
          147., 154., 40., 59., 88., 63., 159., 123., 36., 61., 48.,
          104., 27., 112., 13., 3., 3., 4., 6., 7., 8., 22., 51., 52.,
          53., 53., 53., 53., 53., 52., 53., 53., 53., 53., 53., 32.,
          27., 18., 14., 9., 8., 9., 16., 21., 31., 36., 42., 44., 45.,
          45., 45., 46., 46., 46., 46., 46., 41., 30., 28., 25., 23.,
          22., 23., 24., 25., 26., 24., 23., 24., 22., 19., 18., 16.,
          16., 25., 32., 36., 40., 25., 24., 23., 20., 20., 19., 18.,
          16., 15., 15., 15., 27., 30., 31., 31., 30., 30., 29., 29.,
          30., 32., 33., 33., 36., 43., 43., 43., 44., 45., 44., 43.,
          43., 41., 42., 41., 40., 39., 38., 36., 35., 34., 33., 33.,
          33., 30., 25., 18., 19., 19., 19., 20., 20., 21., 22., 22.,
          24., 29., 32., 35., 38., 39., 43., 48., 58. ]
      - [ 34., 117., 117., 116., 142., 31., 142., 139., 146., 149., 29.,
          120., 145., 117., 77., 104., 145., 150., 146., 30., 113., 54.,
          134., 64., 84., 61., 29., 14., 10., 11., 13., 50., 51., 52.,
          52., 52., 52., 52., 52., 52., 52., 52., 52., 53., 52., 52.,
          45., 31., 23., 19., 13., 11., 21., 24., 27., 30., 32., 34.,
          34., 37., 43., 51., 52., 52., 52., 52., 52., 52., 52., 52.,
          47., 44., 42., 41., 39., 37., 36., 36., 36., 36., 34., 32.,
          29., 21., 18., 21., 25., 30., 35., 37., 29., 24., 22., 19.,
          18., 17., 16., 15., 16., 15., 17., 33., 36., 39., 41., 42.,
          43., 44., 42., 42., 43., 43., 44., 45., 46., 46., 47., 48.,
          50., 50., 50., 50., 50., 50., 50., 49., 49., 48., 47., 47.,
          46., 46., 44., 43., 41., 40., 38., 38., 38., 37., 37., 30.,
          28., 31., 32., 34., 36., 37., 39., 40., 42., 44., 46. ]
      - [ 60., 88., 101., 109., 153., 52., 148., 150., 156., 164., 55.,
          82., 151., 104., 77., 107., 162., 161., 165., 46., 137., 81.,
          100., 69., 143., 64., 56., 30., 17., 15., 19., 22., 32., 45.,
          47., 48., 48., 49., 49., 49., 49., 49., 49., 49., 49., 49.,
          39., 29., 21., 16., 13., 10., 8., 14., 19., 21., 21., 22., 28.,
          33., 42., 49., 49., 49., 49., 49., 49., 49., 49., 43., 39.,
          37., 36., 35., 34., 35., 34., 34., 32., 30., 27., 24., 20.,
          24., 29., 34., 37., 43., 60., 44., 41., 30., 24., 23., 20.,
          18., 18., 17., 16., 16., 17., 18., 18., 18., 26., 30., 36.,
          36., 39., 39., 39., 41., 41., 42., 43., 42., 42., 41., 43.,
          43., 45., 45., 47., 48., 48., 49., 49., 52., 51., 49., 49.,
          46., 43., 40., 42., 38., 37., 37., 23., 24., 26., 27., 29.,
          31., 34., 36., 37., 39., 40., 42., 43., 46., 46. ]
      - [ 54., 79., 94., 104., 149., 61., 168., 159., 161., 163., 115.,
          167., 163., 74., 75., 103., 72., 171., 112., 53., 87., 90.,
          103., 76., 146., 39., 15., 10., 8., 9., 11., 15., 36., 50.,
          52., 52., 53., 53., 53., 53., 53., 53., 53., 53., 53., 53.,
          53., 31., 27., 18., 9., 15., 19., 24., 29., 34., 38., 44., 45.,
          46., 45., 45., 45., 46., 46., 46., 47., 47., 33., 30., 27.,
          26., 24., 25., 25., 28., 29., 28., 27., 26., 23., 23., 20.,
          19., 27., 39., 41., 44., 51., 31., 31., 26., 25., 22., 22.,
          20., 19., 18., 18., 18., 30., 33., 33., 35., 36., 36., 36.,
          38., 39., 38., 39., 40., 45., 46., 47., 48., 48., 49., 48.,
          47., 46., 45., 44., 44., 44., 43., 42., 40., 39., 39., 38.,
          38., 37., 29., 22., 22., 22., 22., 23., 23., 24., 24., 24.,
          24., 27., 31., 34., 37., 40., 42., 46., 61., 64. ]
      - [ 113., 51., 123., 52., 140., 33., 129., 154., 100., 105., 36.,
          67., 149., 39., 87., 34., 113., 156., 117., 37., 122., 38.,
          139., 60., 62., 64., 59., 42., 38., 31., 28., 27., 28., 26.,
          26., 20., 19., 19., 21., 21., 23., 25., 26., 30., 36., 46.,
          46., 45., 42., 34., 15., 13., 12., 10., 8., 17., 21., 22., 23.,
          25., 26., 28., 28., 29., 28., 28., 28., 28., 28., 28., 27.,
          27., 27., 26., 25., 25., 26., 27., 25., 25., 23., 23., 24.,
          22., 20., 26., 37., 43., 49., 25., 24., 23., 22., 20., 19.,
          16., 13., 12., 10., 10., 10., 10., 9., 8., 8., 8., 10., 23.,
          29., 29., 32., 33., 36., 41., 44., 46., 48., 48., 49., 51.,
          51., 51., 51., 50., 50., 48., 48., 47., 39., 33., 32., 31.,
          31., 30., 27., 13., 13., 13., 14., 15., 16., 17., 17., 19.,
          20., 23., 24., 28., 29., 32., 35., 38., 43. ]
      - [ 124., 70., 92., 68., 105., 65., 165., 163., 166., 151., 46.,
          76., 142., 85., 81., 69., 162., 171., 166., 79., 123., 58.,
          72., 52., 102., 39., 36., 32., 24., 20., 16., 12., 15., 27.,
          31., 37., 40., 41., 43., 44., 47., 50., 54., 54., 54., 55.,
          54., 40., 26., 18., 12., 10., 8., 7., 6., 9., 18., 23., 27.,
          33., 37., 40., 41., 43., 43., 45., 46., 46., 46., 45., 42.,
          41., 40., 38., 39., 38., 36., 33., 27., 23., 9., 10., 12., 14.,
          21., 26., 32., 35., 39., 29., 25., 22., 20., 18., 16., 14.,
          12., 11., 13., 21., 24., 28., 28., 33., 35., 34., 35., 34.,
          34., 32., 32., 34., 35., 37., 38., 38., 38., 39., 39., 39.,
          39., 38., 39., 40., 40., 40., 40., 40., 38., 37., 36., 34.,
          34., 33., 34., 36., 36., 36., 36., 34., 32., 29., 26., 24.,
          23., 21., 23., 26., 30., 43., 46., 48., 51. ]
      - [ 108., 46., 145., 51., 99., 37., 116., 153., 119., 142., 53.,
          69., 153., 66., 49., 41., 103., 153., 116., 35., 124., 38.,
          141., 37., 83., 42., 39., 35., 21., 22., 26., 26., 26., 23.,
          21., 19., 19., 20., 22., 23., 24., 27., 30., 46., 46., 46.,
          45., 44., 42., 16., 14., 12., 9., 7., 14., 17., 18., 23., 25.,
          27., 27., 28., 28., 27., 27., 27., 27., 27., 27., 28., 28.,
          28., 28., 28., 28., 27., 27., 26., 27., 28., 26., 26., 26.,
          25., 18., 26., 36., 40., 45., 37., 24., 23., 21., 21., 19.,
          18., 12., 10., 9., 7., 7., 7., 6., 6., 6., 6., 6., 9., 29.,
          31., 32., 34., 35., 39., 43., 46., 48., 49., 49., 50., 50.,
          50., 50., 50., 49., 48., 47., 46., 36., 30., 29., 30., 30.,
          29., 26., 11., 12., 13., 13., 14., 15., 16., 17., 17., 19.,
          22., 23., 27., 28., 32., 34., 37., 43. ]
      - [ 116., 94., 131., 99., 79., 64., 165., 161., 163., 162., 56.,
          109., 145., 128., 71., 64., 164., 163., 159., 63., 86., 91.,
          130., 103., 82., 28., 24., 19., 16., 13., 10., 28., 32., 33.,
          35., 37., 41., 49., 50., 51., 51., 52., 52., 52., 52., 52.,
          51., 51., 40., 19., 12., 10., 8., 6., 4., 18., 25., 28., 32.,
          35., 38., 39., 40., 40., 40., 40., 40., 40., 40., 40., 41.,
          41., 41., 40., 39., 40., 39., 38., 37., 33., 30., 27., 26.,
          11., 12., 16., 19., 23., 27., 21., 19., 17., 15., 13., 13.,
          10., 9., 7., 6., 4., 4., 11., 28., 30., 33., 35., 37., 39.,
          41., 42., 44., 45., 45., 46., 47., 46., 46., 45., 45., 45.,
          45., 45., 45., 46., 46., 46., 46., 46., 45., 45., 44., 44.,
          42., 42., 40., 40., 38., 37., 35., 35., 35., 30., 19., 19.,
          21., 23., 24., 26., 27., 29., 31., 34., 35. ]
      - [ 122., 59., 123., 62., 91., 31., 90., 142., 96., 124., 29., 74.,
          126., 58., 83., 26., 125., 146., 78., 35., 104., 63., 116.,
          77., 115., 64., 64., 56., 50., 45., 37., 30., 28., 27., 27.,
          26., 24., 23., 25., 26., 28., 33., 40., 47., 47., 47., 46.,
          46., 45., 44., 35., 30., 26., 25., 26., 26., 26., 27., 28.,
          28., 28., 29., 29., 29., 30., 30., 30., 29., 29., 29., 29.,
          29., 29., 28., 29., 30., 31., 30., 29., 30., 29., 31., 32.,
          42., 51., 57., 64., 64., 64., 43., 34., 26., 23., 22., 20.,
          18., 16., 14., 13., 12., 11., 11., 11., 11., 11., 10., 19.,
          26., 35., 38., 42., 45., 51., 57., 58., 60., 61., 63., 64.,
          64., 64., 64., 64., 64., 63., 62., 59., 57., 55., 47., 38.,
          36., 31., 20., 15., 16., 17., 18., 18., 21., 22., 23., 23.,
          25., 26., 28., 30., 31., 36., 39., 45., 62., 64. ]
      - [ 124., 42., 119., 44., 97., 32., 112., 153., 103., 140., 32.,
          57., 149., 47., 57., 32., 119., 154., 101., 37., 107., 38.,
          118., 39., 95., 64., 44., 40., 37., 25., 17., 25., 24., 24.,
          21., 21., 20., 20., 22., 22., 23., 25., 28., 33., 46., 46.,
          46., 45., 44., 23., 14., 12., 10., 8., 13., 17., 19., 21., 23.,
          25., 25., 26., 26., 26., 27., 28., 27., 27., 27., 28., 28.,
          28., 28., 28., 28., 27., 27., 26., 29., 28., 26., 26., 23.,
          16., 20., 34., 38., 43., 60., 26., 25., 23., 22., 22., 20.,
          17., 13., 11., 10., 9., 8., 8., 8., 8., 8., 7., 7., 18., 32.,
          34., 34., 34., 37., 42., 44., 46., 47., 47., 48., 49., 50.,
          50., 50., 50., 49., 48., 48., 46., 37., 32., 30., 30., 30.,
          29., 17., 13., 13., 13., 14., 16., 16., 17., 17., 20., 20.,
          23., 25., 27., 29., 31., 34., 39., 50. ]
      - [ 129., 58., 131., 104., 100., 41., 103., 142., 119., 138., 29.,
          74., 145., 68., 78., 27., 129., 145., 105., 33., 100., 55.,
          118., 71., 111., 64., 64., 64., 55., 52., 50., 48., 43., 37.,
          36., 40., 40., 32., 34., 37., 41., 44., 45., 46., 45., 45.,
          45., 45., 45., 43., 36., 32., 27., 25., 24., 25., 26., 25.,
          25., 26., 27., 28., 28., 28., 28., 28., 28., 28., 29., 28.,
          28., 29., 29., 30., 29., 29., 30., 30., 31., 32., 32., 33.,
          33., 35., 43., 50., 53., 64., 64., 26., 25., 24., 22., 22.,
          20., 17., 14., 13., 12., 12., 12., 11., 10., 10., 9., 9., 13.,
          24., 37., 39., 43., 46., 54., 58., 60., 61., 62., 64., 64.,
          64., 64., 64., 64., 64., 64., 64., 64., 62., 57., 52., 45.,
          41., 44., 42., 32., 25., 27., 26., 29., 31., 32., 32., 31.,
          29., 29., 30., 33., 37., 39., 41., 45., 48., 51. ]
      - [ 101., 44., 75., 82., 111., 101., 116., 141., 123., 148., 84.,
          100., 157., 123., 81., 84., 126., 157., 136., 82., 113., 68.,
          47., 48., 124., 41., 36., 30., 25., 20., 16., 11., 7., 16.,
          20., 26., 31., 41., 50., 52., 53., 53., 53., 51., 49., 32.,
          20., 15., 12., 11., 9., 6., 4., 16., 20., 25., 28., 30., 32.,
          34., 35., 36., 36., 36., 36., 36., 36., 35., 35., 35., 36.,
          35., 33., 32., 30., 26., 23., 18., 13., 5., 9., 11., 15., 18.,
          23., 29., 35., 39., 44., 60., 57., 32., 19., 15., 13., 13.,
          11., 10., 9., 9., 8., 7., 7., 6., 11., 23., 25., 28., 27., 30.,
          30., 32., 34., 35., 37., 37., 37., 39., 39., 39., 38., 38.,
          38., 37., 37., 37., 37., 37., 35., 35., 34., 33., 32., 33.,
          33., 32., 31., 28., 26., 16., 17., 19., 20., 21., 23., 26.,
          26., 29., 31., 33., 37., 38., 39. ]
      - [ 122., 52., 168., 125., 69., 69., 144., 160., 162., 162., 65.,
          116., 163., 137., 109., 61., 141., 164., 125., 77., 124., 60.,
          154., 113., 147., 38., 21., 15., 13., 26., 29., 30., 29., 31.,
          31., 31., 29., 25., 26., 28., 45., 46., 46., 47., 47., 49.,
          49., 47., 45., 36., 12., 9., 8., 16., 29., 32., 34., 34., 32.,
          30., 30., 28., 28., 28., 29., 29., 30., 30., 31., 30., 30.,
          31., 31., 30., 30., 30., 28., 28., 30., 33., 34., 36., 36.,
          35., 32., 40., 43., 48., 59., 28., 25., 23., 23., 22., 21.,
          19., 11., 7., 7., 7., 5., 5., 5., 5., 6., 7., 14., 29., 36.,
          37., 38., 39., 41., 46., 49., 51., 52., 53., 53., 52., 52.,
          52., 52., 52., 53., 52., 52., 51., 51., 49., 49., 48., 51.,
          50., 26., 18., 15., 15., 15., 16., 16., 17., 18., 18., 21.,
          23., 28., 33., 35., 39., 48., 57., 64. ]
      - [ 113., 86., 106., 112., 70., 168., 165., 166., 67., 120., 166.,
          165., 137., 74., 169., 166., 169., 45., 163., 167., 167., 101.,
          107., 167., 169., 61., 37., 24., 12., 6., 4., 5., 24., 48.,
          48., 47., 46., 44., 44., 44., 46., 47., 47., 47., 48., 47.,
          46., 46., 45., 45., 46., 47., 48., 48., 48., 48., 48., 48.,
          48., 48., 47., 46., 46., 46., 46., 47., 48., 48., 49., 48.,
          48., 48., 47., 46., 46., 46., 46., 47., 47., 48., 48., 48.,
          49., 49., 50., 51., 52., 54., 57., 64., 64., 64., 64., 62.,
          60., 60., 60., 59., 59., 59., 59., 58., 58., 58., 58., 58.,
          58., 48., 45., 43., 42., 41., 40., 39., 37., 32., 31., 30.,
          30., 32., 33., 34., 30., 29., 29., 30., 30., 30., 31., 31.,
          31., 30., 31., 31., 32., 32., 31., 31., 37., 39., 40., 42.,
          43., 44., 45., 46., 49., 51., 52., 53., 53., 55., 56. ]
      - [ 114., 126., 120., 82., 108., 160., 158., 157., 55., 158., 159.,
          158., 101., 140., 158., 158., 156., 51., 159., 154., 157., 76.,
          144., 156., 157., 45., 18., 13., 9., 5., 5., 27., 43., 48.,
          49., 50., 50., 51., 52., 51., 50., 51., 52., 52., 51., 50.,
          49., 49., 48., 47., 49., 51., 53., 52., 52., 51., 51., 53.,
          52., 52., 51., 49., 48., 50., 49., 49., 49., 51., 51., 50.,
          50., 50., 51., 51., 51., 50., 50., 51., 52., 52., 53., 52.,
          51., 50., 50., 50., 51., 53., 64., 63., 62., 61., 61., 60.,
          60., 59., 59., 58., 58., 58., 58., 58., 58., 59., 59., 56.,
          49., 46., 46., 45., 45., 43., 36., 32., 32., 33., 32., 32.,
          37., 39., 35., 33., 32., 32., 32., 30., 33., 36., 34., 34.,
          33., 35., 38., 39., 40., 40., 42., 43., 44., 47., 52., 50.,
          50., 49., 51., 52., 57., 58., 58., 59., 60., 64., 64. ]
      - [ 109., 117., 116., 102., 78., 164., 163., 160., 63., 140., 164.,
          163., 143., 64., 169., 162., 163., 44., 157., 165., 166., 87.,
          98., 165., 164., 17., 7., 2., 2., 3., 3., 17., 40., 47., 47.,
          46., 45., 44., 45., 46., 47., 47., 48., 49., 48., 48., 47.,
          47., 47., 48., 47., 48., 48., 48., 49., 49., 49., 49., 49.,
          48., 45., 44., 44., 44., 45., 46., 47., 48., 48., 47., 48.,
          47., 46., 46., 45., 46., 46., 47., 47., 47., 47., 47., 48.,
          48., 48., 50., 51., 53., 56., 64., 64., 62., 59., 59., 57.,
          57., 57., 57., 56., 56., 56., 56., 56., 57., 57., 57., 51.,
          46., 45., 43., 43., 42., 41., 40., 38., 32., 31., 31., 31.,
          31., 32., 33., 35., 29., 29., 28., 28., 28., 28., 28., 28.,
          29., 29., 29., 28., 28., 27., 28., 35., 38., 40., 41., 42.,
          43., 44., 46., 48., 49., 50., 52., 52., 53., 53. ]
      - [ 120., 67., 106., 105., 80., 113., 164., 131., 76., 161., 167.,
          156., 65., 139., 166., 164., 109., 104., 169., 163., 162., 86.,
          140., 169., 171., 57., 16., 10., 8., 7., 6., 6., 5., 14., 17.,
          20., 24., 24., 25., 26., 27., 28., 30., 34., 37., 47., 47.,
          46., 46., 46., 45., 44., 43., 43., 43., 44., 44., 45., 46.,
          46., 47., 47., 47., 46., 46., 45., 44., 44., 44., 44., 44.,
          45., 46., 47., 47., 47., 47., 47., 47., 47., 47., 47., 47.,
          48., 49., 51., 53., 57., 61., 58., 56., 55., 53., 52., 51.,
          49., 48., 47., 47., 46., 46., 47., 47., 37., 34., 33., 32.,
          31., 30., 30., 29., 28., 21., 21., 21., 21., 20., 22., 22.,
          23., 32., 31., 26., 26., 26., 26., 26., 26., 23., 30., 32.,
          33., 34., 35., 35., 36., 37., 38., 41., 45., 47., 47., 48.,
          49., 50., 51., 52., 53., 54., 55., 57., 58., 58. ]
      - [ 36., 37., 51., 37., 37., 143., 146., 137., 41., 122., 150.,
          143., 35., 93., 145., 147., 111., 28., 133., 146., 148., 110.,
          40., 146., 151., 29., 5., 2., 1., 1., 1., 1., 1., 1., 25., 32.,
          34., 37., 38., 36., 38., 44., 47., 47., 48., 48., 46., 46.,
          46., 46., 45., 44., 44., 43., 44., 45., 45., 46., 47., 47.,
          47., 47., 47., 46., 45., 46., 45., 44., 44., 44., 45., 45.,
          45., 46., 46., 46., 45., 45., 45., 46., 46., 45., 45., 46.,
          47., 47., 49., 51., 56., 61., 52., 50., 49., 49., 48., 48.,
          48., 49., 49., 49., 50., 53., 54., 55., 55., 55., 55., 56.,
          56., 42., 40., 37., 36., 34., 34., 30., 20., 19., 19., 18.,
          17., 16., 13., 13., 13., 12., 12., 17., 27., 26., 26., 26.,
          26., 29., 32., 34., 35., 35., 36., 37., 42., 44., 45., 45.,
          46., 47., 49., 51., 52., 52., 54., 56., 56. ]
      - [ 61., 146., 143., 139., 47., 152., 148., 148., 64., 134., 155.,
          149., 87., 84., 147., 153., 149., 60., 152., 150., 150., 145.,
          62., 153., 154., 57., 29., 7., 3., 12., 36., 38., 37., 38.,
          38., 40., 41., 41., 41., 42., 46., 50., 50., 50., 50., 51.,
          51., 50., 48., 48., 48., 48., 50., 51., 49., 47., 47., 48.,
          49., 50., 50., 50., 49., 48., 48., 48., 51., 52., 53., 52.,
          52., 52., 51., 52., 52., 53., 53., 52., 51., 51., 51., 51.,
          51., 51., 52., 52., 54., 58., 64., 54., 52., 52., 51., 50.,
          50., 50., 50., 51., 51., 52., 59., 60., 60., 60., 60., 60.,
          60., 60., 60., 60., 61., 54., 45., 41., 41., 39., 36., 35.,
          31., 28., 26., 27., 26., 30., 42., 42., 42., 42., 42., 43.,
          42., 44., 45., 44., 43., 43., 39., 38., 38., 38., 39., 40.,
          41., 45., 46., 47., 48., 49., 54., 55., 56., 57., 59. ]
      - [ 100., 90., 81., 71., 66., 172., 169., 169., 78., 136., 169.,
          170., 149., 76., 171., 169., 161., 65., 157., 168., 170., 117.,
          121., 166., 169., 46., 18., 6., 2., 1., 2., 2., 5., 31., 43.,
          46., 48., 49., 48., 48., 48., 48., 49., 49., 50., 50., 51.,
          50., 49., 48., 48., 48., 48., 50., 50., 50., 50., 50., 49.,
          47., 48., 47., 48., 50., 50., 51., 50., 50., 48., 48., 48.,
          49., 49., 50., 51., 50., 50., 49., 48., 48., 49., 50., 51.,
          51., 52., 54., 56., 61., 64., 63., 61., 58., 57., 57., 56.,
          56., 56., 56., 56., 56., 56., 56., 56., 56., 56., 56., 56.,
          56., 50., 48., 47., 46., 44., 41., 38., 38., 38., 37., 37.,
          32., 31., 33., 33., 33., 32., 32., 32., 32., 33., 33., 31.,
          29., 29., 29., 27., 28., 30., 33., 35., 38., 38., 39., 41.,
          45., 46., 47., 49., 50., 53., 55., 56., 59., 60. ]
      - [ 130., 112., 127., 101., 102., 70., 158., 155., 159., 44., 132.,
          83., 111., 73., 129., 59., 156., 158., 158., 48., 51., 106.,
          111., 96., 98., 47., 34., 31., 29., 24., 26., 39., 39., 40.,
          41., 42., 43., 42., 44., 45., 47., 47., 46., 44., 41., 36.,
          33., 30., 28., 33., 33., 33., 33., 27., 21., 18., 17., 27.,
          32., 32., 34., 36., 37., 40., 42., 43., 42., 40., 40., 39.,
          41., 43., 43., 42., 40., 40., 40., 42., 40., 39., 36., 32.,
          25., 15., 12., 16., 24., 30., 54., 46., 44., 38., 34., 28.,
          22., 17., 15., 13., 12., 12., 15., 23., 31., 32., 37., 37.,
          38., 39., 42., 42., 44., 45., 45., 48., 47., 48., 48., 48.,
          49., 48., 49., 50., 50., 50., 50., 51., 50., 50., 50., 47.,
          47., 44., 43., 42., 39., 38., 38., 36., 33., 27., 16., 13.,
          12., 14., 15., 17., 20., 23., 25., 27., 31., 40., 47. ]
      - [ 141., 71., 89., 83., 135., 67., 126., 164., 114., 71., 140.,
          54., 68., 88., 148., 63., 122., 171., 129., 65., 126., 88.,
          86., 72., 134., 51., 44., 38., 34., 29., 25., 21., 17., 17.,
          19., 20., 20., 22., 24., 27., 28., 29., 29., 30., 29., 29.,
          28., 27., 23., 21., 20., 16., 18., 22., 24., 24., 24., 23.,
          22., 21., 19., 21., 23., 23., 24., 25., 27., 26., 27., 28.,
          28., 28., 28., 28., 28., 27., 26., 24., 21., 19., 11., 15.,
          20., 24., 30., 36., 42., 47., 52., 41., 41., 36., 33., 29.,
          29., 25., 22., 19., 17., 12., 12., 10., 10., 9., 8., 8., 11.,
          19., 21., 23., 25., 26., 27., 29., 31., 33., 34., 35., 36.,
          36., 37., 37., 37., 36., 35., 33., 33., 31., 31., 28., 28.,
          26., 24., 20., 17., 7., 8., 8., 10., 15., 18., 20., 23., 25.,
          27., 28., 31., 33., 37., 39., 43., 50., 50. ]
      - [ 128., 46., 146., 38., 89., 34., 156., 153., 147., 32., 150.,
          29., 30., 38., 112., 35., 153., 154., 155., 35., 108., 37.,
          158., 80., 69., 60., 53., 34., 23., 20., 28., 30., 33., 36.,
          37., 34., 34., 36., 35., 35., 35., 35., 35., 36., 36., 37.,
          37., 33., 31., 27., 27., 23., 20., 22., 24., 23., 20., 18.,
          17., 21., 23., 27., 30., 33., 34., 37., 37., 35., 37., 39.,
          40., 40., 39., 39., 37., 38., 38., 38., 36., 34., 34., 32.,
          31., 28., 25., 21., 25., 35., 42., 55., 54., 53., 42., 31.,
          29., 28., 25., 19., 16., 15., 12., 11., 10., 10., 18., 27.,
          29., 32., 34., 36., 39., 40., 43., 44., 45., 44., 45., 45.,
          46., 46., 47., 47., 47., 48., 47., 47., 47., 46., 45., 44.,
          43., 41., 38., 37., 34., 31., 24., 18., 17., 16., 15., 8., 8.,
          12., 14., 17., 18., 22., 27., 31., 35., 36., 39. ]
      - [ 97., 100., 148., 70., 60., 57., 81., 164., 131., 76., 152.,
          80., 52., 46., 166., 69., 118., 158., 131., 38., 121., 65.,
          135., 77., 95., 60., 46., 39., 36., 34., 31., 29., 28., 28.,
          28., 29., 30., 30., 29., 30., 29., 29., 30., 31., 33., 34.,
          30., 31., 35., 31., 26., 28., 30., 32., 32., 32., 31., 28.,
          25., 23., 26., 28., 29., 31., 31., 28., 28., 30., 31., 31.,
          30., 30., 28., 29., 30., 30., 30., 30., 29., 28., 25., 28.,
          27., 28., 25., 35., 41., 47., 58., 59., 50., 40., 37., 34.,
          32., 31., 28., 26., 23., 22., 19., 18., 17., 14., 12., 11., 8.,
          18., 31., 36., 38., 38., 40., 40., 41., 42., 44., 45., 45.,
          46., 46., 45., 46., 46., 45., 44., 43., 43., 41., 38., 36.,
          36., 33., 32., 30., 27., 12., 8., 11., 17., 18., 18., 20., 21.,
          21., 23., 26., 26., 29., 33., 34., 36., 39. ]
      - [ 97., 94., 156., 74., 94., 69., 107., 158., 101., 101., 156.,
          63., 90., 78., 156., 33., 121., 155., 132., 49., 98., 64.,
          149., 78., 114., 41., 37., 32., 20., 26., 28., 30., 31., 29.,
          27., 27., 28., 28., 28., 28., 28., 28., 30., 31., 33., 33.,
          31., 31., 31., 30., 26., 29., 32., 34., 35., 34., 32., 30.,
          28., 34., 33., 29., 27., 29., 28., 26., 28., 28., 27., 28.,
          28., 28., 29., 29., 28., 28., 28., 29., 28., 29., 29., 27.,
          27., 28., 32., 34., 39., 43., 49., 42., 39., 36., 33., 32.,
          28., 26., 24., 22., 20., 19., 18., 17., 14., 12., 9., 7., 9.,
          25., 31., 33., 33., 35., 37., 38., 40., 43., 44., 44., 46.,
          47., 47., 47., 47., 47., 47., 44., 42., 39., 37., 35., 33.,
          32., 32., 30., 17., 8., 12., 13., 15., 17., 19., 20., 21., 22.,
          24., 27., 29., 32., 34., 35., 38., 42., 48. ]
      - [ 84., 132., 143., 97., 101., 58., 152., 153., 150., 44., 85.,
          57., 59., 37., 127., 49., 152., 153., 153., 38., 48., 96.,
          131., 92., 68., 63., 40., 28., 22., 28., 34., 33., 33., 36.,
          39., 39., 41., 43., 42., 42., 42., 42., 42., 42., 39., 38.,
          33., 29., 31., 34., 36., 29., 28., 24., 17., 15., 13., 10.,
          18., 27., 29., 33., 36., 39., 42., 46., 45., 43., 40., 41.,
          40., 40., 41., 41., 41., 41., 41., 37., 34., 30., 29., 29.,
          28., 20., 14., 21., 27., 37., 57., 26., 24., 21., 18., 17.,
          13., 13., 11., 8., 9., 13., 27., 29., 33., 33., 34., 37., 43.,
          46., 48., 49., 50., 52., 53., 51., 52., 52., 51., 52., 51.,
          54., 55., 53., 51., 51., 49., 48., 48., 46., 46., 46., 46.,
          45., 43., 43., 40., 35., 34., 32., 31., 27., 20., 11., 9., 10.,
          12., 15., 18., 20., 22., 23., 25., 32., 38. ]
      - [ 60., 49., 128., 29., 60., 27., 81., 145., 80., 39., 138., 47.,
          30., 33., 145., 28., 98., 145., 96., 43., 80., 35., 112., 36.,
          70., 54., 48., 35., 20., 15., 22., 21., 20., 22., 23., 25.,
          27., 27., 28., 29., 29., 29., 28., 28., 27., 24., 21., 21.,
          19., 15., 18., 22., 25., 27., 28., 27., 26., 24., 21., 17.,
          14., 19., 19., 18., 19., 22., 24., 26., 26., 27., 28., 29.,
          29., 29., 29., 31., 31., 30., 30., 29., 25., 24., 23., 18.,
          17., 22., 34., 43., 52., 38., 34., 31., 29., 27., 26., 23.,
          20., 19., 15., 15., 13., 10., 7., 6., 6., 5., 8., 20., 25.,
          28., 31., 30., 33., 36., 38., 39., 40., 41., 42., 42., 42.,
          41., 41., 41., 41., 40., 39., 37., 36., 34., 32., 29., 27.,
          22., 8., 6., 6., 6., 6., 9., 11., 12., 14., 16., 17., 21., 23.,
          26., 27., 30., 34., 48., 60. ]
      - [ 66., 48., 59., 28., 68., 27., 71., 142., 76., 28., 33., 26.,
          126., 41., 29., 135., 117., 132., 65., 29., 129., 22., 31.,
          21., 88., 49., 34., 29., 23., 16., 13., 10., 5., 8., 12., 14.,
          17., 20., 22., 23., 25., 25., 25., 24., 24., 24., 23., 23.,
          24., 24., 24., 24., 22., 22., 21., 18., 15., 12., 9., 3., 4.,
          7., 9., 11., 13., 15., 24., 43., 44., 44., 44., 44., 44., 34.,
          24., 20., 17., 15., 15., 13., 11., 15., 17., 21., 25., 30.,
          33., 37., 64., 46., 42., 36., 32., 31., 29., 26., 24., 23.,
          21., 20., 18., 17., 15., 14., 13., 12., 9., 9., 12., 16., 24.,
          27., 30., 32., 33., 35., 36., 38., 40., 40., 42., 42., 42.,
          42., 38., 37., 34., 31., 30., 28., 28., 25., 20., 7., 3., 3.,
          5., 5., 7., 7., 7., 9., 9., 9., 10., 11., 13., 14., 15., 16.,
          17., 18., 19. ]
      - [ 113., 104., 135., 116., 96., 75., 171., 177., 175., 75., 99.,
          129., 143., 109., 60., 159., 169., 166., 173., 67., 115., 102.,
          121., 75., 154., 29., 24., 19., 16., 12., 8., 22., 28., 32.,
          34., 38., 40., 40., 41., 41., 41., 41., 41., 40., 40., 39.,
          39., 39., 39., 38., 37., 37., 36., 35., 32., 29., 27., 23., 3.,
          5., 8., 9., 11., 20., 25., 39., 52., 52., 51., 51., 51., 50.,
          49., 43., 40., 36., 35., 33., 31., 30., 30., 25., 12., 15.,
          18., 22., 27., 32., 44., 49., 41., 32., 28., 27., 24., 22.,
          20., 19., 18., 16., 15., 15., 26., 32., 34., 32., 35., 38.,
          39., 41., 41., 42., 42., 43., 43., 43., 43., 44., 44., 44.,
          44., 45., 45., 45., 45., 45., 44., 44., 43., 44., 41., 41.,
          40., 38., 38., 37., 34., 34., 31., 27., 20., 9., 7., 8., 9.,
          11., 12., 14., 15., 17., 18., 22., 27. ]
      - [ 92., 106., 166., 90., 106., 80., 144., 165., 158., 70., 128.,
          85., 158., 79., 77., 152., 136., 162., 139., 63., 114., 69.,
          151., 70., 138., 39., 19., 15., 23., 28., 32., 32., 32., 33.,
          33., 31., 30., 29., 29., 29., 31., 32., 34., 35., 35., 34.,
          31., 30., 29., 29., 30., 31., 31., 32., 32., 29., 27., 24.,
          23., 20., 13., 14., 15., 17., 42., 45., 46., 47., 47., 47.,
          47., 35., 29., 26., 24., 21., 19., 22., 24., 25., 26., 28.,
          28., 29., 27., 35., 41., 45., 51., 63., 53., 40., 37., 34.,
          31., 29., 26., 23., 21., 20., 18., 16., 15., 14., 13., 16.,
          15., 28., 34., 34., 36., 36., 40., 43., 48., 50., 52., 53.,
          52., 52., 52., 52., 53., 52., 52., 50., 51., 50., 47., 43.,
          41., 37., 36., 35., 31., 27., 10., 7., 5., 5., 5., 5., 6., 7.,
          8., 8., 10., 16., 18., 20., 22., 22., 23. ]
      - [ 122., 41., 49., 66., 106., 100., 121., 156., 137., 92., 99.,
          97., 139., 93., 65., 161., 138., 139., 140., 93., 128., 88.,
          73., 52., 80., 43., 35., 30., 27., 23., 19., 13., 8., 5., 12.,
          20., 26., 30., 31., 33., 36., 38., 38., 40., 39., 39., 39.,
          39., 39., 39., 39., 37., 36., 34., 34., 31., 27., 21., 14., 4.,
          5., 7., 9., 12., 14., 16., 18., 34., 52., 55., 53., 52., 52.,
          52., 52., 51., 50., 38., 32., 25., 18., 11., 13., 16., 19.,
          23., 26., 32., 37., 64., 64., 64., 64., 42., 36., 34., 31.,
          30., 27., 25., 25., 22., 21., 19., 18., 23., 27., 29., 29.,
          30., 31., 32., 33., 33., 36., 35., 35., 37., 37., 37., 37.,
          38., 38., 38., 38., 37., 37., 37., 36., 36., 36., 34., 34.,
          32., 32., 29., 28., 25., 25., 23., 13., 7., 7., 8., 9., 10.,
          10., 11., 12., 13., 14., 17., 21. ]
      - [ 80., 35., 39., 28., 63., 33., 109., 149., 134., 30., 31., 32.,
          94., 60., 34., 134., 120., 147., 98., 30., 92., 28., 32., 41.,
          121., 46., 23., 19., 17., 14., 12., 11., 9., 7., 22., 23., 23.,
          25., 26., 28., 29., 31., 31., 31., 31., 31., 30., 29., 28.,
          27., 25., 25., 24., 23., 23., 20., 20., 5., 3., 4., 5., 6., 7.,
          8., 9., 15., 42., 46., 46., 46., 45., 45., 30., 28., 25., 24.,
          24., 23., 19., 12., 13., 14., 16., 17., 20., 29., 34., 38.,
          42., 64., 53., 40., 34., 29., 27., 23., 19., 16., 15., 14.,
          12., 10., 10., 8., 8., 7., 6., 14., 17., 21., 25., 29., 32.,
          34., 35., 36., 36., 37., 38., 37., 37., 37., 37., 37., 37.,
          36., 36., 36., 37., 35., 33., 31., 26., 18., 15., 10., 4., 4.,
          5., 5., 5., 6., 7., 8., 9., 11., 13., 15., 19., 23., 26., 28.,
          31. ]
      - [ 83., 87., 149., 39., 114., 51., 129., 158., 125., 55., 68.,
          74., 160., 85., 61., 137., 136., 155., 128., 69., 97., 66.,
          155., 55., 105., 59., 42., 37., 31., 23., 26., 28., 28., 28.,
          28., 29., 28., 28., 29., 28., 28., 28., 28., 28., 28., 28.,
          30., 32., 32., 32., 32., 29., 28., 28., 28., 27., 25., 24.,
          22., 20., 11., 13., 14., 18., 35., 45., 46., 46., 46., 46.,
          46., 32., 30., 28., 26., 22., 22., 24., 25., 25., 27., 25.,
          25., 27., 35., 35., 39., 42., 47., 36., 35., 33., 31., 29.,
          26., 24., 21., 20., 19., 19., 19., 18., 18., 16., 15., 15.,
          25., 35., 38., 38., 39., 40., 44., 47., 49., 49., 52., 51.,
          51., 52., 52., 52., 52., 50., 51., 51., 49., 48., 42., 39.,
          38., 36., 35., 35., 33., 14., 7., 8., 8., 9., 9., 9., 9., 10.,
          10., 11., 13., 18., 20., 22., 22., 31., 34. ]
      - [ 137., 82., 123., 134., 99., 58., 161., 160., 160., 49., 48.,
          136., 153., 145., 36., 158., 158., 156., 159., 50., 151., 113.,
          161., 116., 102., 63., 42., 29., 25., 22., 26., 38., 38., 35.,
          35., 35., 38., 41., 42., 42., 42., 43., 41., 41., 40., 41.,
          41., 40., 40., 42., 43., 43., 43., 42., 41., 38., 34., 31.,
          21., 17., 4., 10., 12., 19., 29., 51., 52., 53., 53., 53., 53.,
          53., 53., 52., 52., 52., 52., 52., 51., 51., 50., 49., 47.,
          42., 33., 21., 25., 28., 32., 57., 55., 43., 38., 37., 36.,
          36., 35., 35., 34., 32., 31., 37., 44., 43., 39., 39., 43.,
          43., 46., 47., 47., 48., 49., 49., 50., 50., 51., 51., 51.,
          51., 51., 51., 51., 49., 49., 50., 49., 50., 50., 49., 49.,
          49., 48., 49., 47., 47., 45., 44., 42., 39., 35., 22., 7., 8.,
          8., 8., 10., 13., 15., 15., 17., 18., 18. ]
      - [ 63., 34., 113., 41., 60., 26., 66., 153., 84., 35., 49., 33.,
          113., 31., 25., 141., 122., 132., 74., 37., 97., 38., 47., 29.,
          74., 35., 30., 26., 18., 14., 17., 15., 13., 12., 14., 18.,
          21., 21., 23., 23., 23., 25., 25., 25., 25., 25., 24., 24.,
          24., 24., 24., 23., 22., 21., 19., 16., 13., 10., 3., 5., 6.,
          7., 9., 12., 16., 26., 33., 43., 44., 44., 44., 44., 42., 28.,
          25., 21., 18., 14., 11., 7., 7., 10., 12., 15., 18., 22., 36.,
          49., 64., 41., 40., 34., 31., 29., 27., 24., 21., 20., 17.,
          17., 16., 15., 15., 13., 12., 9., 9., 10., 10., 21., 28., 32.,
          35., 37., 38., 39., 41., 44., 43., 43., 44., 43., 42., 41.,
          41., 38., 36., 34., 31., 30., 28., 26., 20., 6., 1., 1., 2.,
          2., 3., 5., 5., 6., 7., 7., 9., 9., 11., 11., 13., 14., 16.,
          16., 18. ]
      - [ 94., 51., 43., 50., 87., 60., 116., 139., 112., 67., 61., 83.,
          131., 80., 59., 135., 113., 113., 99., 62., 78., 48., 56., 38.,
          88., 46., 39., 29., 23., 19., 15., 12., 9., 7., 16., 22., 22.,
          25., 28., 30., 31., 33., 33., 33., 34., 33., 34., 35., 33.,
          33., 33., 33., 32., 33., 30., 27., 24., 20., 14., 4., 2., 3.,
          5., 7., 9., 11., 13., 16., 34., 46., 47., 48., 49., 49., 48.,
          42., 31., 27., 22., 17., 3., 6., 10., 12., 16., 21., 26., 30.,
          37., 41., 40., 38., 33., 30., 26., 25., 22., 21., 19., 17.,
          16., 14., 13., 13., 16., 24., 27., 27., 27., 29., 30., 32.,
          32., 34., 34., 35., 36., 36., 37., 37., 37., 37., 37., 37.,
          37., 37., 36., 35., 35., 34., 34., 31., 31., 28., 27., 25.,
          21., 12., 5., 6., 6., 6., 8., 8., 10., 10., 12., 13., 14., 15.,
          19., 21., 26. ]
      - [ 96., 110., 158., 66., 111., 110., 133., 158., 132., 83., 150.,
          70., 158., 72., 55., 140., 120., 160., 143., 53., 144., 52.,
          141., 88., 115., 24., 19., 18., 24., 29., 30., 29., 30., 30.,
          31., 31., 29., 30., 30., 31., 32., 33., 39., 49., 46., 39.,
          34., 31., 30., 29., 30., 30., 32., 32., 30., 27., 25., 24.,
          22., 19., 13., 15., 18., 27., 43., 45., 46., 47., 47., 47.,
          40., 34., 30., 29., 27., 26., 28., 31., 29., 30., 30., 32.,
          32., 33., 33., 38., 43., 47., 62., 64., 60., 50., 47., 41.,
          37., 33., 31., 28., 26., 22., 21., 19., 18., 17., 16., 17.,
          20., 27., 30., 33., 36., 39., 42., 45., 48., 51., 50., 50.,
          52., 53., 52., 53., 54., 54., 52., 51., 51., 51., 49., 45.,
          39., 37., 36., 35., 32., 25., 4., 4., 4., 5., 5., 6., 6., 6.,
          7., 9., 14., 18., 20., 22., 23., 28., 30. ]
      - [ 147., 98., 128., 111., 135., 58., 156., 158., 138., 61., 95.,
          120., 139., 118., 38., 127., 144., 142., 70., 82., 105., 123.,
          105., 118., 157., 64., 64., 64., 64., 64., 64., 54., 50., 45.,
          42., 40., 39., 39., 38., 39., 39., 38., 38., 38., 39., 40.,
          40., 39., 40., 39., 39., 39., 38., 37., 37., 36., 36., 36.,
          36., 34., 32., 34., 42., 41., 42., 42., 44., 45., 47., 48.,
          48., 48., 48., 47., 42., 40., 38., 38., 37., 38., 40., 44.,
          49., 55., 55., 58., 64., 64., 64., 61., 59., 44., 41., 38.,
          36., 34., 32., 31., 30., 30., 32., 32., 35., 46., 50., 53.,
          53., 55., 58., 59., 60., 63., 64., 64., 64., 64., 64., 64.,
          64., 64., 62., 60., 58., 58., 57., 56., 57., 56., 55., 51.,
          47., 44., 42., 38., 36., 32., 31., 30., 27., 26., 23., 20.,
          22., 23., 24., 25., 28., 31., 35., 37., 40., 42., 45. ]
      - [ 128., 122., 138., 96., 83., 93., 55., 51., 111., 106., 131.,
          129., 31., 130., 87., 93., 78., 85., 29., 76., 142., 87., 107.,
          36., 144., 60., 56., 50., 47., 48., 47., 41., 32., 27., 18.,
          12., 10., 17., 18., 24., 29., 32., 32., 32., 33., 29., 30.,
          27., 24., 23., 17., 24., 44., 55., 55., 56., 53., 51., 48.,
          46., 32., 22., 16., 18., 29., 46., 46., 44., 35., 19., 8., 13.,
          22., 31., 48., 50., 50., 44., 43., 44., 44., 46., 44., 42.,
          49., 49., 51., 53., 54., 64., 62., 57., 52., 52., 50., 46.,
          47., 44., 44., 45., 44., 45., 42., 38., 36., 36., 32., 30.,
          28., 30., 35., 34., 33., 33., 41., 43., 41., 31., 27., 30.,
          31., 30., 27., 25., 23., 30., 28., 19., 17., 18., 17., 18.,
          16., 16., 17., 22., 31., 34., 37., 39., 39., 41., 44., 43.,
          41., 39., 36., 36., 37., 40., 54., 60., 62. ]
      - [ 111., 51., 111., 151., 151., 150., 151., 115., 28., 119., 151.,
          150., 150., 79., 36., 153., 149., 123., 40., 123., 105., 52.,
          100., 150., 151., 64., 64., 55., 47., 44., 42., 42., 44., 45.,
          44., 43., 42., 43., 41., 42., 43., 44., 43., 43., 42., 42.,
          42., 42., 43., 42., 42., 43., 44., 44., 44., 44., 44., 44.,
          44., 43., 43., 43., 43., 43., 43., 42., 42., 42., 42., 43.,
          43., 42., 42., 41., 40., 41., 41., 41., 40., 39., 39., 38.,
          38., 39., 40., 43., 45., 49., 64., 64., 64., 61., 60., 60.,
          59., 58., 54., 54., 52., 52., 52., 51., 50., 50., 49., 49.,
          49., 49., 48., 47., 48., 46., 47., 46., 44., 44., 45., 43.,
          44., 43., 44., 42., 42., 41., 41., 39., 38., 38., 36., 34.,
          36., 34., 29., 23., 25., 25., 26., 28., 28., 30., 32., 34.,
          35., 37., 38., 40., 40., 42., 44., 46., 47., 49., 50. ]
      - [ 151., 150., 27., 150., 135., 150., 141., 31., 144., 149., 146.,
          33., 149., 148., 150., 150., 62., 147., 149., 149., 52., 148.,
          141., 37., 42., 62., 58., 53., 54., 53., 54., 55., 51., 50.,
          46., 45., 31., 31., 31., 51., 55., 56., 56., 56., 56., 47.,
          22., 22., 22., 28., 47., 48., 48., 48., 49., 49., 49., 49.,
          49., 49., 49., 48., 48., 26., 23., 23., 42., 48., 51., 53.,
          54., 58., 46., 43., 42., 38., 40., 35., 34., 31., 32., 33.,
          33., 32., 34., 37., 42., 55., 64., 64., 61., 60., 59., 58.,
          57., 56., 53., 54., 51., 51., 54., 55., 54., 62., 39., 39.,
          39., 39., 39., 39., 37., 37., 45., 45., 46., 45., 44., 45.,
          27., 29., 36., 36., 37., 37., 37., 36., 41., 43., 44., 41.,
          40., 41., 43., 44., 47., 48., 51., 49., 32., 32., 29., 28.,
          28., 28., 26., 40., 43., 46., 47., 49., 50., 56., 56. ]
      - [ 118., 45., 144., 140., 73., 148., 58., 137., 32., 148., 106.,
          58., 30., 66., 74., 109., 85., 30., 111., 131., 147., 142.,
          25., 137., 147., 50., 18., 17., 18., 32., 40., 42., 44., 44.,
          41., 41., 42., 45., 43., 43., 43., 43., 44., 44., 43., 43.,
          46., 47., 45., 40., 42., 44., 46., 46., 45., 32., 12., 11.,
          13., 35., 53., 53., 53., 53., 52., 50., 13., 12., 13., 26.,
          52., 53., 53., 54., 54., 54., 54., 54., 53., 53., 54., 54.,
          54., 53., 45., 39., 37., 39., 64., 62., 60., 60., 60., 60.,
          60., 57., 52., 50., 50., 47., 45., 45., 43., 40., 39., 38.,
          36., 35., 33., 32., 33., 32., 30., 31., 30., 22., 18., 20.,
          20., 21., 24., 25., 25., 25., 25., 29., 38., 43., 41., 42.,
          41., 42., 42., 41., 43., 42., 42., 42., 43., 41., 42., 43.,
          45., 46., 47., 49., 51., 55., 58., 59., 60., 61., 62. ]
      - [ 130., 35., 102., 144., 97., 104., 48., 29., 110., 34., 63.,
          23., 43., 109., 30., 121., 79., 120., 110., 93., 140., 87.,
          63., 114., 42., 64., 64., 58., 47., 42., 39., 36., 36., 37.,
          39., 35., 36., 33., 28., 25., 22., 16., 15., 29., 28., 26.,
          29., 32., 36., 36., 36., 36., 34., 33., 30., 27., 25., 16.,
          11., 11., 11., 15., 22., 26., 30., 33., 35., 35., 36., 37.,
          32., 32., 35., 35., 35., 34., 33., 34., 32., 32., 30., 30.,
          31., 32., 33., 33., 49., 53., 61., 64., 60., 56., 54., 53.,
          54., 49., 47., 40., 39., 38., 14., 7., 6., 5., 4., 3., 3., 4.,
          20., 35., 40., 42., 44., 46., 47., 48., 47., 40., 32., 31.,
          28., 28., 26., 12., 11., 20., 29., 34., 37., 42., 48., 62.,
          62., 61., 37., 32., 29., 27., 25., 24., 21., 18., 30., 23.,
          23., 17., 19., 23., 23., 24., 32., 54., 60. ]
      - [ 149., 147., 106., 46., 124., 125., 37., 112., 145., 147., 27.,
          65., 146., 145., 148., 108., 48., 124., 153., 147., 146., 143.,
          80., 52., 122., 64., 51., 47., 43., 42., 42., 42., 42., 43.,
          42., 41., 40., 41., 43., 43., 44., 43., 42., 41., 42., 42.,
          43., 42., 42., 40., 41., 42., 42., 43., 43., 43., 43., 43.,
          43., 43., 43., 43., 43., 43., 42., 41., 41., 42., 42., 43.,
          43., 38., 39., 42., 42., 43., 40., 40., 42., 41., 40., 42.,
          44., 48., 44., 42., 42., 43., 56., 48., 48., 47., 47., 45.,
          45., 42., 38., 36., 35., 34., 34., 33., 32., 30., 26., 25.,
          24., 23., 22., 22., 32., 33., 34., 34., 35., 35., 35., 41.,
          40., 40., 40., 40., 39., 41., 44., 47., 46., 46., 47., 46.,
          46., 46., 47., 46., 48., 46., 46., 49., 52., 53., 53., 54.,
          53., 54., 54., 54., 56., 56., 59., 59., 61., 62., 62. ]
   decision_functions:
      -
         sv_count: 12
         rho: 1.2038565234934258e-01
         alpha: [ 8.2399719409216787e-01, 1.1642206408572426e+00,
             2.1577100131731022e-01, 1.5821307132939780e-02,
             7.4946085137696017e-01, -4.8240510219642002e-01,
             -5.9448577237484024e-01, -5.5977758930832655e-01,
             -1.8216334057175007e-01, -4.8157295728059289e-02,
             -7.6938788551996951e-01, -3.3289400907725514e-01 ]
         index: [ 1, 2, 5, 6, 8, 9, 10, 11, 12, 13, 15, 16 ]
      -
         sv_count: 11
         rho: -3.1172475805362210e-01
         alpha: [ 1.6042513717333587e-01, 4.0142397692840820e-01,
             8.8839278286214607e-01, 3.9089309072680947e-02,
             5.6317870612239018e-01, 6.8299081239379111e-01,
             -8.0713128184227809e-02, -3.1865969313798859e-01,
             -5.2571907012085106e-01, -1.2035788958297557e+00,
             -6.0682993727992873e-01 ]
         index: [ 0, 1, 2, 4, 5, 8, 19, 20, 21, 22, 24 ]
      -
         sv_count: 14
         rho: -2.8539050683798040e-01
         alpha: [ 1.3613208145698485e-01, 7.0672460382967850e-01,
             1.0683420357262345e+00, 7.1459652626526373e-03,
             5.3123023533262370e-01, 2.0440857588766675e-01,
             4.8929143962489229e-02, 1.1126688065448742e+00,
             -2.5680834314483897e-01, -1.6053882467724614e+00,
             -3.5847226724231096e-01, -8.5348315546991005e-01,
             -3.3050417408570487e-01, -4.1092526128797946e-01 ]
         index: [ 0, 1, 2, 3, 4, 5, 7, 8, 26, 27, 28, 29, 30, 31 ]
      -
         sv_count: 8
         rho: -5.5710068401881550e-02
         alpha: [ 8.6283275524419689e-01, 1.3110974038671370e+00,
             7.5454092766299552e-02, 4.3771650628867576e-01,
             -1.1845661543554529e+00, -5.8415695758551744e-01,
             -4.0859800256885309e-01, -5.0977964365648554e-01 ]
         index: [ 1, 2, 6, 8, 33, 36, 37, 39 ]
      -
         sv_count: 13
         rho: -2.0116793487665241e-01
         alpha: [ 6.3205448555810162e-01, 2.6908975114989137e-01,
             2.4266132076419269e+00, 6.7930038333122722e-01,
             4.3294703223256270e-01, 3.5598118998007688e-01,
             -1.2662397377745793e+00, -1.4639223276220952e+00,
             -4.2729444378009729e-01, -3.8206371960977809e-01,
             -8.9641880250902334e-02, -8.1471699898093708e-01,
             -3.5210694187539626e-01 ]
         index: [ 0, 1, 2, 4, 6, 8, 43, 44, 45, 46, 47, 48, 49 ]
      -
         sv_count: 14
         rho: -3.0722916891118718e-01
         alpha: [ 6.1837872175337605e-01, 4.4024720359908004e-01,
             2.3058067685154180e+00, 8.7867657036178626e-01,
             2.0305890849172261e+00, 9.4760799113219174e-01,
             1.9481245310130207e-02, 7.5617547835072707e-01,
             -1.8663413742794717e+00, -1.4389224471507704e+00,
             -1.5544507680171775e+00, -2.8282819037660784e-01,
             -2.3751365335611299e+00, -4.7928375055477951e-01 ]
         index: [ 0, 1, 2, 3, 4, 6, 7, 8, 50, 53, 54, 55, 57, 58 ]
      -
         sv_count: 11
         rho: -1.8842391457619129e-01
         alpha: [ 6.4065067294375555e-02, 5.3519352253881514e-01,
             9.8461990461161264e-01, 1.1405395758949059e-02,
             1.9094078844004378e-01, 2.8080499186004509e-01,
             -3.6986594819206781e-01, -5.6059819740645811e-01,
             -5.5577043326225783e-01, -4.9937984991410372e-01,
             -8.1415241728953522e-02 ]
         index: [ 0, 1, 2, 5, 6, 8, 60, 62, 63, 64, 65 ]
      -
         sv_count: 10
         rho: -2.9214497611786555e-01
         alpha: [ 4.3665248403155382e-01, 1.2290069621538151e+00,
             9.1824813441664355e-01, 3.1904476796153591e-01,
             3.9643117077511386e-01, 1.1619974874639132e+00,
             -1.7789572245205156e+00, -1.1639799741319929e+00,
             -2.4182555595579744e-01, -1.2766182521942693e+00 ]
         index: [ 1, 2, 4, 5, 7, 8, 66, 67, 71, 72 ]
      -
         sv_count: 15
         rho: 1.1221502876554023e-02
         alpha: [ 3.0568730211805034e-01, 8.5084205603985574e-01,
             2.4117562550056268e+00, 1.1354087422553278e+00,
             1.9260035794752239e+00, 3.2808629586520155e-01,
             9.5747996450684314e-01, 9.5656428677609395e-01,
             -1.9754557198117080e+00, -4.8115633100916572e-01,
             -5.0376289745093596e-02, -1.5466665517825766e+00,
             -1.3972542123909653e+00, -1.3186392804341360e+00,
             -2.1022800968685784e+00 ]
         index: [ 0, 1, 2, 3, 5, 6, 7, 8, 73, 74, 77, 78, 79, 81, 83 ]
      -
         sv_count: 11
         rho: 1.7037096989166181e-01
         alpha: [ 1.5708732875753573e-01, 1.2223843602486728e+00,
             1.7943120214113368e+00, 3.4484144941874406e-02,
             7.4757376883675941e-01, -6.2892888749664866e-01,
             -9.3021942534545154e-01, -3.8855786900649730e-01,
             -1.2620886100702011e-01, -9.0929551186367397e-01,
             -9.7263106947688704e-01 ]
         index: [ 0, 1, 2, 6, 8, 84, 85, 86, 87, 88, 89 ]
      -
         sv_count: 11
         rho: -4.4485741248813243e-01
         alpha: [ 1.9342602361564873e-01, 1.0404587007987691e+00,
             4.2355376156923230e-01, 3.7471519610249504e-01,
             4.8403214555155993e-01, 2.8674298914718910e-01,
             -4.2494946872609402e-01, -9.7255744096371621e-01,
             -3.6788693199708028e-01, -5.6577159753723649e-01,
             -4.7176337756076692e-01 ]
         index: [ 9, 10, 11, 12, 15, 16, 19, 20, 21, 22, 24 ]
      -
         sv_count: 11
         rho: -3.9972231124810237e-01
         alpha: [ 8.1138905342169609e-01, 7.4208127215633746e-01,
             1.1805115827297146e+00, 8.7422049403209645e-01,
             1.3130018887545136e-01, 8.5302743789516817e-03,
             -7.0003241046076048e-01, -6.5574078271987435e-01,
             -6.7462825237189128e-01, -9.2027015703875392e-01,
             -7.9736126300296717e-01 ]
         index: [ 10, 11, 12, 15, 16, 17, 26, 27, 29, 30, 31 ]
      -
         sv_count: 16
         rho: -2.5923989133624659e-01
         alpha: [ 6.3562778124338293e-01, 2.5130577704197526e-01,
             1.5887002783969246e+00, 5.5918426302247237e-01,
             3.6861315277005596e-01, 1.1448039910964515e-01,
             1.2606347688893091e-01, 2.9053245750523954e-01,
             1.5960162227496724e-01, -4.4280656135552710e-01,
             -9.5078886890668268e-01, -3.2593703412470885e-02,
             -4.0380320585742435e-01, -6.5472106561527954e-01,
             -6.9271395816886117e-01, -9.1668184493734794e-01 ]
         index: [ 9, 10, 11, 12, 13, 14, 15, 16, 18, 32, 33, 35, 36, 37,
             39, 40 ]
      -
         sv_count: 14
         rho: -3.2154635248328656e-01
         alpha: [ 2.1858826810006823e-01, 6.6664747784200651e-01,
             4.0660494732682612e-01, 4.3312767152134840e-01,
             4.9057925378070744e-01, 3.1394119537711196e-01,
             1.8782304819231804e-02, -4.9285459920078656e-02,
             -6.3348551709085299e-01, -8.9649280051641678e-01,
             -3.6198705741589193e-01, -3.4707859695630283e-01,
             -4.6013077630027224e-03, -2.5534037910475454e-01 ]
         index: [ 9, 10, 11, 12, 15, 16, 17, 42, 43, 44, 45, 46, 48, 49 ]
      -
         sv_count: 12
         rho: -2.9577927522983810e-01
         alpha: [ 2.9412482517507510e-01, 6.0004267577815829e-01,
             4.8237353593079657e-01, 2.8272991149406967e-01,
             5.8776155648103456e-01, 2.5492556806202932e-01,
             -2.7156433706373628e-01, -7.3708245205868314e-02,
             -5.4477761786227763e-01, -6.1962540218932849e-01,
             -7.9664163594166282e-01, -1.9564083465829013e-01 ]
         index: [ 9, 10, 11, 12, 15, 16, 50, 51, 53, 54, 57, 58 ]
      -
         sv_count: 12
         rho: -4.4727297636606567e-01
         alpha: [ 4.6482064135705457e-02, 6.8822581988835940e-01,
             9.3123815703746082e-01, 6.4718589769833035e-01,
             3.1003230196457049e-01, 8.7552975861663818e-01,
             2.8825599044954342e-01, -1.6079270444279570e-01,
             -7.6447929281341198e-01, -7.6471665161654090e-01,
             -1.2149544036179971e+00, -8.8200693729986268e-01 ]
         index: [ 9, 10, 11, 12, 15, 16, 17, 59, 60, 62, 63, 64 ]
      -
         sv_count: 12
         rho: -3.2769183663218754e-01
         alpha: [ 3.9016575536969467e-01, 5.7797968714623416e-01,
             5.0993503507285343e-01, 3.1324942342198175e-01,
             5.1654962480568012e-01, 2.3958239264267028e-01,
             -8.1748691444157440e-01, -6.8798037687473956e-01,
             -6.0195105255366164e-02, -1.3133868368986237e-01,
             -2.5479268252988041e-01, -5.9566815566769127e-01 ]
         index: [ 9, 10, 11, 12, 15, 16, 66, 67, 68, 69, 71, 72 ]
      -
         sv_count: 12
         rho: -1.5592098992818318e-01
         alpha: [ 3.7128907221286328e-01, 7.0782916256057260e-01,
             5.5844850178293370e-01, 4.6173250187795567e-01,
             1.1458669979807152e+00, 4.0621149760746789e-01,
             -7.2279865274074495e-01, -8.7388645043992919e-01,
             -4.3586663935802655e-01, -6.3737797030692947e-02,
             -4.6893123654361180e-01, -1.0861569579095023e+00 ]
         index: [ 9, 10, 11, 12, 15, 16, 73, 76, 79, 80, 82, 83 ]
      -
         sv_count: 13
         rho: 1.6054234321656261e-02
         alpha: [ 5.2186091576055260e-01, 1.3534689901506445e+00,
             1.4188391306328674e+00, 5.9166863319794760e-01,
             2.3751355731103743e-01, 9.2721264144058269e-01,
             5.8171342766165268e-01, -1.0937249502451507e+00,
             -1.5353911404959038e+00, -1.1859944835230265e+00,
             -9.2227743888980462e-01, -4.1063388405464707e-01,
             -4.8425539894675296e-01 ]
         index: [ 9, 10, 11, 12, 14, 15, 16, 84, 85, 86, 87, 88, 89 ]
      -
         sv_count: 10
         rho: 8.9490226437178522e-02
         alpha: [ 1.0580355903151966e+00, 4.5058248918659766e-01,
             1.4420697794517285e+00, 1.7373048077332168e-01,
             6.2650482657331663e-01, 2.7237233246534917e-02,
             -2.3266034853005280e-01, -1.1805450460842208e+00,
             -1.6065521285576609e+00, -7.5840287637476156e-01 ]
         index: [ 20, 21, 22, 23, 24, 25, 26, 27, 29, 30 ]
      -
         sv_count: 10
         rho: 2.1081004165884173e-01
         alpha: [ 3.2086090153557528e-01, 6.3662394841944114e-01,
             2.9495142922874101e-01, 5.8390367192818471e-01,
             2.9411685582038283e-01, -8.3067723023952944e-01,
             -2.0451612638681968e-01, -5.1710973766838209e-01,
             -3.9311240774139644e-01, -1.8504130489619719e-01 ]
         index: [ 19, 20, 21, 22, 24, 33, 36, 37, 39, 40 ]
      -
         sv_count: 11
         rho: 8.6438986264506565e-02
         alpha: [ 3.9032224021621220e-01, 5.9301325902008939e-01,
             2.5304115065690702e-01, 1.0590039987085549e+00,
             6.0846306306239362e-01, -1.0722623859239655e-01,
             -6.5667103149264716e-01, -7.8215971227006709e-01,
             -4.8316130400130891e-01, -6.9537272135801437e-02,
             -8.0508815317193572e-01 ]
         index: [ 19, 20, 21, 22, 24, 42, 43, 44, 45, 46, 49 ]
      -
         sv_count: 11
         rho: 1.3633324446266304e-01
         alpha: [ 2.4447091575526717e-02, 4.4739778109169814e-01,
             5.1048162512269757e-01, 1.1522337318703562e+00,
             4.9130297702844955e-01, -3.2112426726144666e-01,
             -1.9612364259007387e-01, -7.0973661369360053e-01,
             -3.5780764332783760e-01, -6.9574881327056781e-01,
             -3.4532222654520117e-01 ]
         index: [ 19, 20, 21, 22, 24, 50, 51, 53, 54, 57, 58 ]
      -
         sv_count: 10
         rho: 1.9185120224387403e-01
         alpha: [ 1.0690694587346317e+00, 1.8804012103971941e+00,
             5.6168448802485081e-02, 5.9401606267651091e-02,
             -4.4659346304013928e-04, -7.0995895508727835e-01,
             -1.0870940923356223e+00, -3.0353078766911190e-01,
             -6.6900031183568565e-01, -2.9500998381122340e-01 ]
         index: [ 19, 20, 21, 22, 59, 61, 62, 63, 64, 65 ]
      -
         sv_count: 10
         rho: 1.2623001979082754e-01
         alpha: [ 2.7896665281034988e-02, 3.7029028485340904e-01,
             6.4071855689330781e-01, 2.1824581119366502e+00,
             3.2805164191289882e-01, -2.1969892230810921e+00,
             -5.3755452541634396e-01, -1.1307497308262490e-01,
             -1.3453072735653590e-01, -5.6726581194070413e-01 ]
         index: [ 19, 20, 21, 22, 24, 66, 67, 69, 70, 72 ]
      -
         sv_count: 14
         rho: 2.7767192152473869e-01
         alpha: [ 1.6082786777894423e-01, 5.3311776299664881e-01,
             5.1969569483462275e-01, 1.2496155030524594e+00,
             6.4157692183525972e-01, 2.6294715180622980e-01,
             -6.7088100926891636e-01, -8.2369207488472526e-02,
             -7.3731705145992821e-01, -1.1659869880753405e-01,
             -1.3912104423078797e-01, -3.1403112363814195e-01,
             -3.8281717208348981e-01, -9.2464559532689372e-01 ]
         index: [ 19, 20, 21, 22, 24, 25, 74, 75, 76, 79, 80, 81, 82, 83 ]
      -
         sv_count: 12
         rho: 5.9618049624949498e-01
         alpha: [ 5.4205558502350548e-01, 6.9199574922530571e-01,
             6.9007810580323314e-01, 8.3502895614970318e-01,
             4.3620479711846266e-01, 1.5859520074401598e-01,
             -3.0323622904278219e-01, -1.0109881455731018e+00,
             -6.4553146160657926e-01, -3.1342594899683773e-01,
             -3.2945291740159588e-01, -7.5132369144332900e-01 ]
         index: [ 19, 20, 21, 22, 23, 24, 84, 85, 86, 87, 88, 89 ]
      -
         sv_count: 11
         rho: 1.4873275127758109e-01
         alpha: [ 7.0710905814333425e-02, 7.6839086259445055e-01,
             2.7297874423111307e-01, 7.8610023155609998e-01,
             2.7910790396495316e-01, 3.0506100546004566e-01,
             -9.5601996074308426e-01, -4.5786303156184566e-01,
             -5.5277690391021195e-01, -2.2335310386189311e-01,
             -2.9233665354396104e-01 ]
         index: [ 26, 27, 28, 29, 30, 31, 33, 36, 37, 39, 40 ]
      -
         sv_count: 12
         rho: 3.0069110189982564e-02
         alpha: [ 1.5896321044157224e-01, 9.8574246537046195e-01,
             1.5574541806617554e+00, 4.1829388741862056e-01,
             1.9657008973803933e-01, -2.1551102516117537e-01,
             -1.0498835808086735e+00, -4.1307265315736830e-01,
             -9.6948454907327605e-02, -5.0519681857321397e-01,
             -1.6093533705307736e-01, -8.7547596396961369e-01 ]
         index: [ 26, 27, 29, 30, 31, 42, 43, 44, 45, 46, 48, 49 ]
      -
         sv_count: 10
         rho: 4.7484645626737133e-02
         alpha: [ 9.3392673431900497e-01, 1.4419299711595348e+00,
             1.1267243673130831e+00, 2.6863461130020322e-01,
             -1.0089474404472398e+00, -5.8225758159187409e-02,
             -3.8372633219607499e-01, -6.0541043124857075e-01,
             -1.5847340966139498e+00, -1.3017162542680349e-01 ]
         index: [ 26, 27, 29, 31, 50, 51, 53, 54, 57, 58 ]
      -
         sv_count: 11
         rho: 5.4334145741219621e-02
         alpha: [ 7.0592138121526560e-01, 3.9273884123186947e-01,
             8.5813038680037790e-01, 3.4384729181086071e-01,
             1.0494273878455421e-01, -1.2228282208787254e-01,
             -6.0378493087134145e-02, -3.1930333730399624e-01,
             -6.5838040559671818e-01, -7.8512498397549357e-01,
             -4.6011059779171298e-01 ]
         index: [ 26, 27, 29, 30, 31, 59, 60, 61, 62, 63, 64 ]
      -
         sv_count: 11
         rho: -7.8503883427238269e-02
         alpha: [ 2.5010886153152997e-02, 2.5000000000000000e+00,
             8.5964492893174282e-01, 1.9338457240516838e+00,
             5.4793458479072643e-01, -1.7839609281474136e+00,
             -1.0896818082147302e+00, -9.5539614227987874e-02,
             -1.5261272931502845e+00, -3.3568645580771767e-01,
             -1.0354400243791722e+00 ]
         index: [ 26, 27, 28, 29, 30, 66, 67, 68, 69, 70, 72 ]
      -
         sv_count: 12
         rho: 2.2298831734011471e-01
         alpha: [ 1.2814900043271120e+00, 1.8358053426940490e+00,
             9.0567069858365024e-01, 1.2173901781676719e+00,
             3.1263867423607832e-03, -6.8103892321870413e-03,
             -6.7700841169848563e-02, -1.3994222633620306e+00,
             -6.0499192584000117e-01, -3.8240153735508836e-01,
             -1.8406248977443262e+00, -9.4153075581136181e-01 ]
         index: [ 26, 27, 29, 30, 31, 73, 74, 76, 80, 81, 82, 83 ]
      -
         sv_count: 11
         rho: 5.1323058831937907e-01
         alpha: [ 1.1956913062378027e+00, 1.1220545771440036e+00,
             5.3356249430591374e-01, 7.0583031823092257e-01,
             2.5536848482610314e-01, -7.8563355038674587e-01,
             -1.1410629957169491e+00, -4.8071727921443203e-01,
             -2.8630653335396133e-01, -7.4243802759924482e-01,
             -3.7634879447341296e-01 ]
         index: [ 26, 27, 29, 30, 31, 84, 85, 86, 87, 88, 89 ]
      -
         sv_count: 11
         rho: -1.5686051587651340e-01
         alpha: [ 9.3301834469222122e-01, 3.4210751233176223e-01,
             4.2772087135726694e-01, 4.5891970785621189e-01,
             3.0256327789996682e-02, -5.5295340178016394e-01,
             -5.1313054907120303e-01, -2.4988849164500704e-01,
             -7.9414312888069827e-02, -1.9025687991617757e-01,
             -6.0637912872683752e-01 ]
         index: [ 33, 36, 37, 39, 40, 43, 44, 45, 46, 48, 49 ]
      -
         sv_count: 10
         rho: -1.2766147587490714e-01
         alpha: [ 1.0017643373090059e+00, 6.8698864931669421e-02,
             4.0406255793352597e-01, 3.6913417670605003e-01,
             4.9872096145261519e-01, -1.6960577801891813e-01,
             -3.8067500208941674e-01, -7.5451937907731592e-01,
             -6.3464461000125194e-01, -4.0293612914596394e-01 ]
         index: [ 33, 34, 36, 37, 39, 50, 53, 54, 57, 58 ]
      -
         sv_count: 11
         rho: -1.6858485281407695e-01
         alpha: [ 8.4645544181321308e-01, 2.1158274206145469e-01,
             1.6080996679511100e-01, 4.2373972090556755e-01,
             6.2466357435105357e-01, 1.9805809929507506e-01,
             -5.6906308745475043e-01, -2.1840680680988489e-01,
             -5.2159748109537873e-01, -5.6120907984092649e-01,
             -5.9503309002053495e-01 ]
         index: [ 33, 35, 36, 37, 39, 40, 60, 61, 62, 63, 64 ]
      -
         sv_count: 10
